tree
version=v4
num_class=14
num_tree_per_iteration=14
label_index=0
max_feature_idx=77
objective=multiclass num_class:14
feature_names=ABack_x_mean ABack_x_std ABack_x_min ABack_x_max ABack_x_range ABack_x_median ABack_y_mean ABack_y_std ABack_y_min ABack_y_max ABack_y_range ABack_y_median ABack_z_mean ABack_z_std ABack_z_min ABack_z_max ABack_z_range ABack_z_median GBack_x_mean GBack_x_std GBack_x_min GBack_x_max GBack_x_range GBack_x_median GBack_y_mean GBack_y_std GBack_y_min GBack_y_max GBack_y_range GBack_y_median GBack_z_mean GBack_z_std GBack_z_min GBack_z_max GBack_z_range GBack_z_median acc_mag_mean acc_mag_std gyr_mag_mean gyr_mag_std acc_corr_xy acc_corr_xz acc_corr_yz gyr_corr_xy gyr_corr_xz gyr_corr_yz Weight_scaled Age_months_scaled Breed_Australian_Kelpie Breed_Beauceron Breed_Belgian_Shepherd Breed_Belgian_Shepherd_Groenendael Breed_Belgian_Shepherd_Malinois Breed_Border_Collie Breed_Bouvier Breed_Bouvier_des_Ardennes Breed_Bull_Terrier_(Miniature) Breed_Crossbreed Breed_Dutch_Shepherd Breed_English_Springer_Spaniel Breed_Finnish_Lapphund Breed_Flat-Coated_Retriever Breed_German_Shepherd Breed_Golden_Retriever Breed_Hovawart Breed_Labrador_Retriever Breed_Lagotto_Romagnolo Breed_Lapponian_Herder Breed_Mudi Breed_Nova_Scotia_Duck_Tolling_Retriever Breed_Smooth_Collie Breed_Spanish_Water_Dog Breed_Standard_Poodle Breed_Vizsla Gender_1 Gender_2 NeuteringStatus_0 NeuteringStatus_1
feature_infos=[-0.73471904424185464:1.6627398207894739] [0.00055482990530319402:3.1347146303056288] [-11.161946333333333:0.60063731578947366] [-0.70237968421052632:7.1446011428571428] [0.0021275500000000058:16.472892696969694] [-0.73558354999999997:2.0553501940476191] [-1.5873641970112782:0.90750359842105266] [0.00077916701743281571:1.7546767271602453] [-6.4701660000000007:0.84650884999999998] [-0.95961189999999996:3.2298583999999999] [0.0024426791979950124:6.9853411000000012] [-1.15382085:0.92703971666666662] [-4.0838912502459266:1.0210543824060152] [0.00043189777070413873:3.6732949717141192] [-9.6639927142857136:1.0068359047619049] [0.2961182:4.8618164999999998] [0.0015675789473684754:10.806570964285713] [-5.5653036516290726:1.0818481500000001] [-73.809086842519363:110.93764949572838] [0.078605739337341024:415.09232707009693] [-709.59476984210517:0.16383121052631569] [-8.517456450000001:1858.4519567499999] [0.28686529999999999:1920.69866465] [-118.38202944210525:94.990545424999993] [-81.865045143068173:172.43003095554599] [0.066159777433234784:524.76452914892843] [-2000.0001219999999:7.943726100000001] [-1.60827645:1767.9444438571429] [0.28236014285714295:3177.4446519166668] [-106.12608911973683:143.15507655789474] [-169.18355267613407:155.89232295465541] [0.052093155485503279:432.53012164414525] [-1858.4672155000001:26.593019049999999] [-23.486329699999999:694.53193489473688] [0.18535398684210519:2251.8805824999999] [-200.77973635000001:156.45342669166666] [0.76157646971399906:4.9970009510840514] [0.00037599593301166029:3.5370916575555307] [0.28968089651737011:418.6547756238603] [0.087165646783845849:638.9323047247002] [-0.99915756707615344:0.99534354924562396] [-0.99975037096662533:0.99819812325485702] [-0.99706222993999194:0.99989029519459016] [-0.99956555650363932:0.99468061137257091] [-0.99472407461759937:0.98950771745959487] [-0.99906681091343352:0.98732109844798333] [-1.4810226226183614:2.4308088697323109] [-1.3471985444334609:1.9997118974857515] [0:1] [0:1] none [0:1] [0:1] [0:1] [0:1] none none none [0:1] [0:1] [0:1] [0:1] [0:1] [0:1] [0:1] [0:1] [0:1] [0:1] [0:1] [0:1] none [0:1] [0:1] [0:1] [0:1] [0:1] [0:1] [0:1]
tree_sizes=2799 3358 3332 1367 3357 3330 3368 3322 654 3328 3331 3366 3338 3337 2659 3394 3425 1699 3439 3386 3423 3392 768 3427 3375 3422 3407 3397 2551 3403 3409 1285 3413 3415 3437 3398 660 3407 3394 3439 3398 3409 2636 3194 3431 981 3426 3405 3438 3387 666 3409 3405 3427 3369 3368 2653 3406 3412 1180 3414 3416 3462 3405 753 3414 3409 3431 3365 3420 2418 3411 3408 1603 3426 3416 3468 3416 673 3432 3383 3438 3387 3375 2445 3408 3427 1791 3419 3419 3472 3403 771 3433 3404 3435 3411 3421 2669 3420 3443 1704 3438 3437 3472 3389 673 3436 3425 3458 3443 3411 2770 3422 3439 1932 3452 3434 3459 3421 672 3440 3427 3437 3419 3435 2780 3423 3465 2039 3461 3421 3463 3426 573 3438 3412 3423 3430 3441 2796 3422 3440 1396 3448 3439 3476 3392 674 3442 3394 3447 3418 3431 3209 3424 3419 1828 3455 3421 3461 3433 670 3435 3426 3450 3427 3440 2782 3411 3450 1500 3463 3425 3483 3402 673 3442 3419 3457 3433 3407 3305 3430 3471 1611 3476 3421 3463 3412 672 3454 3406 3447 3405 3402 2884 3408 3461 1832 3473 3433 3476 3403 673 3460 3381 3460 3427 3427 2887 3423 3445 1193 3472 3435 3472 3432 672 3439 3435 3448 3399 3419 2558 3437 3449 1410 3472 3456 3472 3448 670 3453 3427 3462 3430 3420 2683 3431 3457 1091 3447 3446 3481 3418 564 3438 3417 3459 3411 3435 3113 3419 3470 1822 3455 3426 3481 3411 680 3453 3418 3426 3446 3458 2997 3439 3444 1929 3455 3451 3484 3420 561 3457 3405 3451 3437 3421 2804 3425 3461 1617 3486 3443 3482 3434 680 3434 3440 3454 3432 3425 3105 3431 3452 887 3470 3414 3469 3423 670 3460 3389 3462 3419 3430 3441 3422 3474 981 3465 3427 3461 3434 568 3451 3428 3446 3430 3436 3104 3436 3464 1404 3465 3428 3447 3415 574 3440 3437 3443 3424 3398 3005 3422 3441 1938 3485 3441 3466 3430 675 3439 3439 3449 3430 3430 2789 3432 3464 1403 3464 3441 3442 3413 674 3462 3408 3445 3433 3409 2264 3427 3475 1720 3466 3441 3484 3450 672 3449 3431 3445 3447 3416 3220 3423 3483 1823 3462 3448 3460 3437 572 3433 3397 3452 3440 3449 2585 3444 3453 2036 3457 3437 3474 3441 673 3448 3444 3423 3451 3449 2997 3420 3481 1723 3442 3427 3471 3413 571 3444 3439 3463 3437 3432 2788 3438 3472 1821 3470 3433 3462 3446 573 3444 3414 3465 3432 3454 3008 3431 3451 1841 3462 3444 3456 3447 772 3456 3417 3451 3439 3443 2792 3416 3468 1195 3457 3443 3476 3434 575 3446 3436 3452 3446 3450 3217 3436 3456 1304 3466 3446 3481 3444 572 3451 3437 3464 3432 3416 2589 3435 3452 1201 3465 3433 3450 3435 670 3448 3414 3452 3415 3383 2584 3421 3479 1731 3490 3457 3476 3418 560 3461 3421 3465 3443 3405 2576 3432 3454 1197 3486 3433 3491 3419 672 3457 3422 3476 3449 3388 2914 3427 3473 1623 3445 3447 3466 3432 673 3445 3441 3458 3457 3430 2560 3431 3463 1505 3466 3437 3486 3447 575 3467 3443 3460 3450 3426 2163 3414 3464 1203 3451 3442 3477 3457 673 3455 3436 3441 3438 3412 2701 3435 3465 1298 3477 3444 3486 3434 672 3451 3458 3444 3453 3445 2690 3445 3454 1946 3445 3436 3470 3420 674 3454 3366 3460 3455 3422 2693 3413 3468 1403 3478 3446 3474 3447 672 3438 3417 3460 3423 3417 2678 3426 3479 1292 3479 3457 3471 3452 673 3453 3440 3468 3448 3448 2580 3432 3473 1192 3484 3456 3473 3446 573 3448 3433 3461 3431 3454 2375 3409 3470 1617 3478 3459 3454 3435 684 3451 3447 3490 3451 3437 2797 3434 3465 1518 3488 3449 3460 3459 660 3454 3438 3464 3440 3424 2279 3441 3460 1840 3471 3447 3467 3470 673 3445 3442 3468 3453 3471 1838 3427 3460 1737 3477 3445 3491 3457 664 3460 3436 3486 3447 3434 2047 3448 3446 1628 3478 3445 3482 3456 780 3452 3426 3470 3452 3438 2487 3447 3471 1189 3449 3441 3491 3468 674 3443 3442 3477 3457 3448 2704 3438 3472 1418 3470 3436 3485 3437 779 3455 3428 3473 3445 3433 2705 3428 3443 1414 3460 3448 3488 3441 673 3442 3431 3452 3441 3423 2169 3428 3476 1845 3476 3445 3470 3464 473 3457 3439 3484 3450 3432 2701 3446 3476 1207 3465 3446 3490 3463 674 3456 3410 3435 3461 3400 2499 3446 3449 1311 3447 3465 3475 3467 674 3449 3413 3462 3453 3435 2913 3447 3458 1409 3491 3457 3494 3463 779 3453 3439 3479 3450 3458 2807 3451 3467 1309 3480 3430 3486 3444 885 3447 3408 3474 3414 3452 2599 3453 3476 1623 3484 3440 3480 3467 770 3455 3415 3476 3444 3446 2382 3338 3481 1847 3447 3463 3488 3473 767 3468 3445 3492 3451 3446 2706 3439 3494 1521 3485 3439 3466 3456 767 3462 3412 3489 3448 3436 1944 3456 3460 1742 3474 3460 3471 3485 676 3460 3414 3468 3462 3449 2590 3433 3462 1302 3471 3433 3462 3472 663 3461 3407 3480 3448 3448 2375 3447 3481 1525 3474 3452 3474 3468 768 3461 3444 3459 3453 3432 2394 3445 3476 1516 3476 3455 3451 3457 587 3434 3436 3456 3451 3456 2391 3452 3471 1200 3485 3453 3477 3487 877 3455 3463 3478 3441 3440 2600 3445 3468 1302 3478 3461 3457 3466 673 3469 3442 3472 3441 3404 1952 3449 3462 1203 3471 3444 3468 3471 578 3484 3436 3480 3460 3445 2498 3453 3470 1319 3472 3449 3495 3458 675 3443 3429 3489 3447 3447 2282 3444 3466 1197 3472 3445 3464 3496 680 3443 3450 3474 3459 3443 2173 3471 3472 1638 3497 3460 3479 3463 669 3450 3436 3481 3461 3443 2275 3441 3471 1102 3454 3465 3504 3469 660 3464 3458 3470 3458 3453 2176 3459 3468 1427 3472 3452 3468 3448 670 3465 3439 3504 3462 3439 2481 3438 3472 1425 3492 3450 3502 3472 587 3461 3467 3471 3429 3430 2382 3444 3477 1416 3476 3439 3485 3460 584 3466 3431 3461 3473 3451 2279 3443 3477 889 3487 3466 3477 3466 576 3464 3395 3478 3454 3437 2487 3453 3481 1527 3474 3463 3479 3442 789 3449 3452 3495 3468 3428 2810 3448 3478 1306 3498 3455 3495 3466 568 3453 3445 3495 3442 3448 2385 3408 3484 894 3486 3450 3504 3472 673 3493 3420 3465 3449 3459 2278 3460 3474 1415 3485 3459 3506 3479 777 3476 3457 3480 3429 3462 2392 3428 3471 1091 3453 3455 3458 3452 571 3475 3430 3468 3468 3453 2405 3217 3460 999 3470 3455 3447 3474 674 3450 3464 3500 3474 3456 2283 3223 3482 991 3465 3464 3486 3472 670 3480 3418 3467 3475 3460 2589 3448 3468 890 3471 3443 3500 3465 986 3462 3455 3489 3457 3464 2392 3354 3492 1207 3451 3470 3515 3469 675 3471 3451 3486 3475 3462 2285 3347 3488 1426 3467 3461 3489 3453 588 3451 3431 3499 3483 3470 2389 3116 3482 1210 3477 3470 3448 3479 678 3466 3462 3482 3473 3473 2069 3363 3480 1307 3470 3455 3485 3453 776 3466 3472 3488 3455 3494 2499 3443 3489 1096 3472 3465 3475 3466 482 3467 3410 3495 3454 3445 2287 3423 3489 1759 3478 3449 3444 3461 582 3446 3430 3464 3484 3458 2727 3451 3480 1102 3478 3461 3473 3475 477 3477 3452 3502 3450 3457 1963 3441 3494 1428 3482 3469 3499 3468 585 3473 3448 3472 3456 3479 2610 3457 3490 1534 3469 3450 3447 3497 795 3466 3441 3480 3469 3483 2077 3392 3473 1420 3473 3468 3499 3488 679 3459 3423 3491 3479 3454 2722 3454 3492 1316 3473 3435 3465 3470 768 3458 3445 3506 3485 3475 1968 3353 3478 1529 3484 3472 3469 3453 572 3452 3458 3487 3440 3463

Tree=0
num_leaves=26
num_cat=0
split_feature=34 0 33 65 39 59 31 17 40 39 6 32 27 26 2 46 39 46 38 32 19 14 18 31 44
split_gain=2801.84 4289.32 3476.98 1468.47 3707.81 1300.93 1597.78 1192.34 1912.17 1067.53 954.904 644.093 1722.98 696.868 575.565 138.144 429.19 118.412 392.683 80.0044 330.105 77.5841 384.932 2.05444 10.7401
threshold=154.34418657500004 -0.34324901874999997 45.278933425000012 1.0000000180025095e-35 93.262957223947012 1.0000000180025095e-35 82.820332313667038 0.96460864166666682 0.18803013317934153 33.520735588631062 0.018175020504385967 -63.065523633333328 263.4765786000001 -30.918886124999997 -0.52441409999999988 -1.046374679023842 33.849392624636231 -0.75660938329416272 164.95388161929364 -90.222173499999982 25.591382607371404 0.40432127500000004 16.732043375932019 66.876483812808274 -0.37322042408097744
decision_type=2 2 2 2 2 2 2 2 2 2 2 2 2 2 2 2 2 2 2 2 2 2 2 2 2
left_child=-1 19 10 5 -5 7 -7 11 -9 -10 17 13 -13 -4 -15 -11 -17 -3 -19 20 -2 22 -8 -6 -25
right_child=1 2 3 4 23 6 21 8 9 15 -12 12 -14 14 -16 16 -18 18 -20 -21 -22 -23 -24 24 -26
leaf_value=-2.6690525163417402 -2.2593187914717903 -2.2596836016062136 -2.6690486716964199 -2.6689419891433426 -2.2511507263198238 -2.6687706878982125 -2.6670518785878534 -2.668931259265436 -2.6684151432226786 -2.2540838287441192 -2.6682430427840194 -2.6688765245442614 -2.2731902327208848 -2.2552755231121635 -2.6679830498022552 -2.2581086600807962 -2.6673670727657486 -2.6671775998819069 -2.2617104179923757 -2.2531426039716234 -2.6666499261330334 -2.2582103097411697 -2.2552755231121635 -2.2552755231121635 -2.3343719525618845
leaf_weight=1253.4956352226436 6.7210301049053651 27.208434447646141 695.07843025401235 51.932100340723991 19.963135242462158 20.834029220044613 2.8918860256671906 47.502685643732548 9.243475239723919 20.104944862425331 7.2686556465923777 33.089873820543289 14.020086929202078 6.6543784141540527 5.4852776527404767 6.7009440362453443 3.449813149869442 3.0919941514730436 6.7610779292881489 26.778960794210434 2.392339751124382 13.505253382027149 6.6543784141540527 6.6543784141540518 8.250645522028206
leaf_count=19825 3 18 8330 1264 3 425 81 847 172 6 189 641 22 1 137 2 68 62 4 8 67 8 1 1 46
internal_value=-2.63876 -2.60266 -2.61406 -2.62593 -2.50825 -2.63749 -2.47844 -2.6458 -2.54071 -2.38674 -2.35454 -2.65794 -2.55066 -2.6651 -2.44071 -2.30078 -2.39641 -2.29302 -2.38826 -2.2808 -2.36571 -2.3069 -2.37932 -2.26943 -2.29654
internal_weight=2305.73 1052.24 1016.35 972.016 86.8003 885.215 43.8855 841.33 87.0019 39.4992 44.3302 754.328 47.11 707.218 12.1397 30.2557 10.1508 37.0615 9.85307 35.8923 9.11337 23.0515 9.54626 34.8682 14.905
internal_count=32231 12406 12328 12055 1314 10741 515 10226 1095 248 273 9131 663 8468 138 76 70 84 66 78 70 90 82 50 47
is_linear=0
shrinkage=1


Tree=1
num_leaves=31
num_cat=0
split_feature=8 38 8 49 51 2 11 34 41 14 40 5 38 45 33 27 5 62 5 5 14 31 33 44 37 42 12 45 63 40
split_gain=8673.1 11063 508.606 1245.32 1000.57 336.327 163.217 2155.61 141.502 124.101 115.062 164.678 109.744 99.7126 71.9609 63.1935 31.0484 22.2519 367.673 53.5013 88.2191 20.2835 14.5119 13.5038 40.8843 43.1934 15.3515 39.1841 6.98595 61.6928
threshold=-0.030371099999999995 18.198694467892313 -0.13037114642857137 1.0000000180025095e-35 1.0000000180025095e-35 -0.34012447499999993 0.064050250000000017 80.089132242105293 -0.87843773215930299 0.62359617763157915 -0.62335469882104511 -0.0063442249999999751 37.659838393001529 -0.57191820725053633 1.8585205500000004 257.9834140750001 -0.28621338273809516 1.0000000180025095e-35 -0.20760501249999994 -0.13259279999999993 0.88922005714285723 7.1405542784902192 12.676761828947372 0.56216349710484903 0.081167356855826198 0.60239474425045658 0.9937600158012222 -0.35208458877483723 1.0000000180025095e-35 0.83692840715291938
decision_type=2 2 2 2 2 2 2 2 2 2 2 2 2 2 2 2 2 2 2 2 2 2 2 2 2 2 2 2 2 2
left_child=2 5 6 4 10 9 17 -8 -9 -2 11 -4 -10 -3 -15 -16 -12 28 -19 20 -20 -7 -23 26 25 -25 -18 -28 -1 -30
right_child=1 13 3 -5 -6 21 7 8 12 -11 16 -13 -14 14 15 -17 23 18 19 -21 -22 22 -24 24 -26 -27 27 -29 29 -31
leaf_value=-2.6683844256495206 -2.2876113613060935 -2.4439916661842269 -2.4025227257987143 -2.2863118763023085 -2.2815240035115414 -2.2547577021709913 -2.2604509498929097 -2.3559256434297113 -2.4292275236459906 -2.6668509286617916 -2.5209136615183905 -2.6677547477396297 -2.6690239343734685 -2.3529959831738179 -2.669011677707545 -2.3940913462061868 -2.6689884023807244 -2.3289982085461758 -2.6663436902544744 -2.6689827654796119 -2.3566171851910456 -2.2734888753483169 -2.3789427208779674 -2.6684232201187617 -2.4374073137939498 -2.4611813478984281 -2.4295931819005459 -2.6664085187882356 -2.6640907626846766 -2.5214428753765916
leaf_weight=1552.7027095332742 0.989380002021789 1.7463039718568314 3.797614187002182 10.2139730527997 6.8697424158453932 109.22623210027814 12.612099852412937 1.2270442880690087 1.6326437965035427 2.619390957057476 1.3024887368082989 4.5063232295215112 179.69856834411621 0.55737177282571693 131.40009574219584 0.65562004968523879 86.979354076087475 2.9549071267247191 2.1110728494822975 80.394157778471708 1.2299815118312833 4.6271925233304483 4.1969875246286392 9.3624547868967003 0.79691258072853166 0.89948928356170732 0.76764475926756892 2.1651884317398062 84.775865722447634 2.7150336243212214
leaf_count=20613 2 25 24 45 27 252 31 8 21 49 16 96 1986 3 4141 6 1356 19 46 1432 10 13 34 240 10 6 5 43 1627 45
internal_value=-2.63977 -2.47517 -2.66034 -2.60238 -2.63017 -2.26805 -2.66419 -2.6382 -2.66447 -2.55701 -2.65211 -2.54544 -2.66673 -2.66283 -2.66588 -2.66744 -2.66088 -2.66713 -2.65223 -2.66403 -2.5483 -2.25932 -2.31983 -2.66283 -2.63182 -2.64843 -2.66668 -2.60055 -2.66791 -2.6595
internal_weight=2305.73 256.019 2049.72 127.661 117.447 121.659 1922.05 195.17 182.558 3.60877 110.577 8.30394 181.331 134.359 132.613 132.056 102.274 1726.88 86.6901 83.7352 3.34105 118.05 8.82418 100.971 11.0589 10.2619 89.9122 2.93283 1640.19 87.4909
internal_count=32231 4525 27706 1868 1823 350 25838 2046 2015 51 1796 120 2007 4175 4150 4147 1676 23792 1507 1488 56 299 47 1660 256 246 1404 48 22285 1672
is_linear=0
shrinkage=1


Tree=2
num_leaves=31
num_cat=0
split_feature=59 31 61 15 47 8 6 8 71 42 10 13 32 26 14 48 14 36 4 20 12 7 36 5 26 18 13 6 40 23
split_gain=4769.89 3581.33 2305.22 3886.93 1448.89 1300.61 988.675 599.299 556.81 586.11 351.983 393.07 248.631 237.138 227.765 214.594 311.089 198.061 281.204 173.092 182.333 152.765 222.535 137.787 114.221 98.5434 92.5677 83.99 113.04 83.5015
threshold=1.0000000180025095e-35 33.040313681795091 1.0000000180025095e-35 0.89691170000000009 -1.3299464287534646 -0.023303149999999998 0.11517068542293234 -0.55556637499999983 1.0000000180025095e-35 0.39542345063894108 0.045521909210526325 0.14854605883764213 -4.2144777249999992 -6.6797896619047608 0.51094131578947377 1.0000000180025095e-35 0.90668947500000019 1.0128030693607564 0.14366511052631584 -217.37323458809522 0.70583757144188597 0.027773195649162707 1.0042148390369567 0.36763305000000007 -100.33824281666664 0.32368729744360908 0.016224534090827518 -0.3531139142857142 0.20791021747391261 0.66673263605889743
decision_type=2 2 2 2 2 2 2 2 2 2 2 2 2 2 2 2 2 2 2 2 2 2 2 2 2 2 2 2 2 2
left_child=2 5 4 12 6 7 10 14 15 19 -1 21 -4 24 -2 -6 23 -9 -19 20 -10 22 -12 -17 -11 -14 -18 28 -5 -16
right_child=1 -3 3 27 8 -7 -8 17 9 13 11 -13 25 -15 29 16 26 18 -20 -21 -22 -23 -24 -25 -26 -27 -28 -29 -30 -31
leaf_value=-2.6676976561433934 -2.2847963130133957 -2.666303363147549 -2.2695361833816889 -2.6667565114733192 -2.6653822162859333 -2.66854606227959 -2.6687858199198478 -2.2814563150457472 -2.6662832291699825 -2.5464650413750678 -2.6670211217297104 -2.6363857595344626 -2.6662707145254223 -2.6668382798606936 -2.6681471789235625 -2.649992495806984 -2.5479218654286107 -2.6300515609812716 -2.3202794843135393 -2.6630420197010127 -2.2849180743665043 -2.2964433492322667 -2.3221936138931216 -2.3497173722363263 -2.3112739011902832 -2.3771766005084234 -2.3051417790949471 -2.6665326060623888 -2.3690011979632053 -2.4530789283462138
leaf_weight=4.3127983585000029 2.3200902231037608 58.357717096805573 38.69420563429594 2.5077590085566035 1899.319654867053 11.635360628366469 21.998010326176882 65.479118868708611 2.0628570765256873 2.4285611398518077 2.8466424234211472 4.6439109891653052 2.0531437471508971 2.6038503572344771 6.4922572672367078 24.603754691779617 2.4589706361293784 3.8735411427915087 8.3432829566299898 26.663516312837604 2.3208573237061501 20.697804559022188 3.9215203486382961 1.3560444191098202 10.296751264482735 2.0240327082574368 3.7330856993794441 63.665615137666464 1.9661607965826986 2.0528687797486782
leaf_count=134 9 684 150 71 28458 46 246 245 58 50 85 98 62 54 117 508 38 60 39 398 9 106 26 10 61 21 17 337 16 18
internal_value=-2.63827 -2.47954 -2.65 -2.51687 -2.65726 -2.37081 -2.51015 -2.33167 -2.66161 -2.55901 -2.41444 -2.38034 -2.29307 -2.40788 -2.54184 -2.66408 -2.58736 -2.30248 -2.41738 -2.63422 -2.46165 -2.33733 -2.46596 -2.63337 -2.35485 -2.52064 -2.3981 -2.65761 -2.53351 -2.61527
internal_weight=2305.73 158.554 2147.18 110.911 2036.27 100.197 58.4207 88.5612 1977.85 46.3764 36.4227 32.1099 42.7714 15.3292 10.8652 1931.47 32.1519 77.6959 12.2168 31.0472 4.38371 27.466 6.76816 25.9598 12.7253 4.07718 6.19206 68.1395 4.47392 8.54513
internal_count=32231 1218 31013 657 30356 534 695 488 29661 630 449 315 233 165 144 29031 573 344 99 465 67 217 111 518 111 83 55 424 87 135
is_linear=0
shrinkage=1


Tree=3
num_leaves=12
num_cat=0
split_feature=19 4 39 31 36 36 15 42 24 67 60
split_gain=10822.6 9297.25 3058.72 2960.19 1861.15 1766.79 1350.48 1101.54 985.701 102.227 1223.33
threshold=66.820930336377003 1.7132310513157896 60.106771601850689 76.67091108790062 1.0151352325061727 1.3656723824205439 1.6973033845238097 0.66736478351117301 21.536166900607771 1.0000000180025095e-35 1.0000000180025095e-35
decision_type=2 2 2 2 2 2 2 2 2 2 2
left_child=6 3 7 4 9 -5 -1 -3 -8 10 -2
right_child=1 2 -4 5 -6 -7 8 -9 -10 -11 -12
leaf_value=-2.6690540270053957 -2.668242559878212 -2.66829934205143 -2.6690297193952892 -2.6688935210783726 -2.668532418608033 -2.2524902608468551 -2.6683873907951865 -2.2609076686102769 -2.2536977431953016 -2.250756632506556 -2.2517496073040291
leaf_weight=1821.3598900213838 7.2641210295259944 7.8157864287495604 217.27814262360334 36.530039306730032 11.330695178359745 12.134453773498533 8.8561559729278088 24.873538069427013 12.170020274817944 97.369989052414894 48.750958405435085
leaf_count=28920 193 201 1872 599 281 1 118 19 2 15 10
internal_value=-2.63369 -2.5041 -2.6283 -2.3587 -2.29799 -2.56455 -2.66629 -2.3582 -2.42782 -2.2706 -2.30577
internal_weight=2305.73 463.348 249.967 213.38 164.716 48.6645 1842.39 32.6893 21.0262 153.385 56.0151
internal_count=32231 3191 2092 1099 499 600 29040 220 120 218 203
is_linear=0
shrinkage=1


Tree=4
num_leaves=31
num_cat=0
split_feature=9 14 29 34 2 8 9 17 69 47 31 36 29 11 54 53 46 9 47 36 2 54 41 47 8 47 14 46 29 14
split_gain=4614.81 5597.75 1211.95 1053.56 819.252 800.52 795.633 739.34 461.427 438.144 402.034 351.801 293.439 268.326 247.168 225.532 192.612 191.759 276.628 171.526 654.95 215.713 163.141 162.1 145.86 135.812 133.309 173.812 188.291 117.391
threshold=-0.24988193026315789 0.85743417500000019 -0.12504174078947364 0.82999775131578957 -0.25161142499999994 -0.56928648157894723 -0.28461907499999994 0.794178717857143 1.0000000180025095e-35 -1.0539125778735294 6.4849967322400017 1.0137600402041664 -1.3141680538847116 -0.41785653035714276 1.0000000180025095e-35 1.0000000180025095e-35 1.0544237150163338 -0.13269684210526309 -1.3299464287534646 1.0083453197765704 0.25557228552631589 1.0000000180025095e-35 -0.45927532321445114 1.0163413037259832 -0.51280775526315781 1.4476441957258817 0.84183350000000012 0.18512782782729531 -0.85601811250000004 0.89164927142857142
decision_type=2 2 2 2 2 2 2 2 2 2 2 2 2 2 2 2 2 2 2 2 2 2 2 2 2 2 2 2 2 2
left_child=1 5 4 -2 -3 19 10 -7 9 -9 11 -6 29 -4 16 -14 26 18 -5 20 21 -1 25 -15 -18 -20 -11 -28 -29 -8
right_child=3 2 13 17 6 7 12 8 -10 14 -12 -13 15 23 -16 -17 24 -19 22 -21 -22 -23 -24 -25 -26 -27 27 28 -30 -31
leaf_value=-2.6575919856720263 -2.3019290216759933 -2.6521520058655095 -2.3437336472104899 -2.3100089116150442 -2.2790492663307216 -2.3009694478151728 -2.639057324182851 -2.285914373836158 -2.3010209365128547 -2.6414830850265498 -2.5861841731554511 -2.570287754237059 -2.610111131882741 -2.6191567001676699 -2.3415517476195671 -2.2701127432399808 -2.6645174350445222 -2.666920379941415 -2.5861546580960968 -2.6650252278399069 -2.2613676057924219 -2.2968494902358865 -2.6486121739272241 -2.4323684932663712 -2.2664429553652763 -2.3514588300051154 -2.6176954513798787 -2.6495293419701573 -2.3050025776606411 -2.2774026636654567
leaf_weight=33.474880281835794 7.1597594246268264 8.4740691483020765 4.3651886098086825 2.2922884412109843 82.327446635812521 8.993938244879244 0.93100705370307224 3.8561982549726954 4.910946160554885 77.53539102524519 4.4726192764937869 3.9924601167440406 15.114589255303144 28.757354520261288 2.946954943239688 1.8947368897497661 1.221618175506592 1622.3347643315792 15.289004143327476 220.68106507509947 4.5165139213204375 1.4610972627997387 115.10940914973617 4.8098441064357749 2.315789531916379 2.5249627269804469 12.442582469433548 2.1477866023778915 4.0289336480200282 5.3505590111017227
leaf_count=496 225 155 132 75 2656 294 19 127 157 1027 79 83 234 495 90 63 31 19128 286 3766 150 47 1598 124 77 80 204 38 121 174
internal_value=-2.63907 -2.56243 -2.41389 -2.66257 -2.36804 -2.62512 -2.34692 -2.56119 -2.58251 -2.59582 -2.30676 -2.29239 -2.50435 -2.56244 -2.60783 -2.57013 -2.61602 -2.66406 -2.62976 -2.65472 -2.5972 -2.64149 -2.63554 -2.59177 -2.40166 -2.5513 -2.62418 -2.55232 -2.42354 -2.33058
internal_weight=2305.73 541.024 160.49 1764.71 122.557 380.534 114.083 120.4 111.406 106.495 90.7925 86.3199 23.2909 37.9324 102.639 17.0093 99.6921 1757.55 135.216 260.134 39.4525 34.936 132.923 33.5672 3.53741 17.814 96.1547 18.6193 6.17672 6.28157
internal_count=32231 10839 4214 21392 3463 6625 3308 2166 1872 1715 2818 2739 490 751 1588 297 1498 21167 2039 4459 693 543 1964 619 108 366 1390 363 159 193
is_linear=0
shrinkage=1


Tree=5
num_leaves=31
num_cat=0
split_feature=1 22 45 62 49 1 21 43 34 11 33 31 1 8 6 18 1 44 40 1 34 18 24 45 5 13 33 41 43 58
split_gain=2796.87 6893.37 3256.71 2303.83 1409.83 1125.14 639.202 574.995 521.635 414.006 281.234 276.86 504.385 278.964 271.045 282.414 247.354 395.069 229.137 203.961 230.015 189.701 180.56 167.145 331.318 136.647 117.56 115.657 243.074 97.4642
threshold=0.20831727688581611 183.30994777500004 -0.45315906289940305 1.0000000180025095e-35 1.0000000180025095e-35 0.38031917564774814 62.103275275000009 -0.24619041674847969 231.46821480000003 -0.062479169736842068 113.23090285000002 54.505595671898639 0.28043892965211797 -0.60552984999999981 -0.28340185507283827 -9.7248358696052613 0.31952372494513431 -0.20464172376577205 0.50899638660933466 0.26270448443382449 161.45180716985649 -14.302210914310775 11.503227964921683 -0.16022681649531786 -0.054830774999999991 0.19938064124573812 132.95594077500002 0.62140137591863276 -0.28531508057381366 1.0000000180025095e-35
decision_type=2 2 2 2 2 2 2 2 2 2 2 2 2 2 2 2 2 2 2 2 2 2 2 2 2 2 2 2 2 2
left_child=29 2 5 4 11 7 25 19 14 -5 -6 12 -4 -14 -9 -16 17 -11 27 -2 -21 -15 -10 -23 -25 -3 -20 -13 -29 -1
right_child=1 6 3 9 10 -7 -8 8 22 16 -12 18 13 21 15 -17 -18 -19 26 20 -22 23 -24 24 -26 -27 -28 28 -30 -31
leaf_value=-2.6667360386129748 -2.668552633366533 -2.6653895526563627 -2.6572452185643796 -2.6672919025239015 -2.2962988713762016 -2.265677480973598 -2.6680073848663226 -2.6663803171417606 -2.6682214309270713 -2.2908666692619817 -2.5923799379451817 -2.6619345112989095 -2.667819603101758 -2.6665264655833143 -2.5855292712827991 -2.2909351936015838 -2.2674807556808001 -2.6676703506516355 -2.6654816448390291 -2.3193354350465079 -2.6670537882964078 -2.2880527727079838 -2.3187815282875492 -2.2748617085865956 -2.6676228274191716 -2.3575859129891539 -2.3593391814602143 -2.3651803238185285 -2.6681362594939682 -2.6122960065470382
leaf_weight=1357.4738763216883 11.787949029356243 1.5358609035611133 24.615326469764113 3.2985791824758044 15.241869293153288 54.482361001893878 550.28331563808024 2.141290606930851 7.0777612626552564 5.9486015625297997 3.6291373893618575 121.17499600723386 4.7475327290594604 2.2707163617014912 3.3232872039079622 29.392276320606474 25.533618792891502 4.2258972004055986 1.5779924988746632 3.9881137385964385 2.8946726769208908 8.9058947265148216 1.5326596088707445 3.5268867872655454 4.0825873836874855 7.2442520745098591 3.5929133966565132 3.6638987995684147 6.4140449874103052 30.125564636662602
leaf_count=23769 221 38 371 85 52 123 4171 46 134 20 74 1734 95 49 60 104 62 99 37 18 65 28 6 9 58 52 27 25 140 459
internal_value=-2.63868 -2.59806 -2.4955 -2.55824 -2.59882 -2.36528 -2.66393 -2.45312 -2.3934 -2.34734 -2.35253 -2.62415 -2.56238 -2.46338 -2.34186 -2.32051 -2.3177 -2.44642 -2.64597 -2.59289 -2.46431 -2.41167 -2.6034 -2.3765 -2.48361 -2.41146 -2.45206 -2.65377 -2.55668 -2.66555
internal_weight=2305.73 918.134 359.071 242.45 203.444 116.62 559.063 62.138 43.4673 39.0067 18.871 184.573 48.1489 23.5336 34.8569 32.7156 35.7081 10.1745 136.424 18.6707 6.88279 18.7861 8.61042 16.5154 7.60947 8.78011 5.17091 131.253 10.0779 1387.6
internal_count=32231 8003 3742 2965 2699 777 4261 654 350 266 126 2573 610 239 210 164 181 119 1963 304 83 144 140 95 67 90 64 1899 165 24228
is_linear=0
shrinkage=1


Tree=6
num_leaves=31
num_cat=0
split_feature=9 15 11 46 24 42 2 36 12 2 46 63 68 2 19 3 43 22 36 45 11 46 19 54 69 15 16 11 36 36
split_gain=3658.34 1370.14 1083.27 869.748 434.786 429.417 470.637 516.35 411.532 226.85 723.121 341.897 188.753 184.068 182.489 158.441 151.676 223.831 142.37 141.672 120.993 122.637 114.701 395.019 131.121 266.229 111.828 104.239 101.761 101.417
threshold=-0.048528199999999994 0.83876952500000013 -0.17288818749999998 -1.4085812986859414 -0.34935765208959901 0.77168946963489382 -0.21245118552631573 1.0146881400667866 0.48952849156641604 0.26179200000000008 -0.46684408756448331 1.0000000180025095e-35 1.0000000180025095e-35 -0.072703244736842074 6.7532230548793715 0.074133325000000014 -0.72656544351746133 3.7151712197994993 1.0039829718438193 -0.1934206626056936 -0.75234439404761899 1.3441890107460133 6.1431242526474188 1.0000000180025095e-35 1.0000000180025095e-35 0.94158615789473699 0.098765254636591568 -0.44226067499999994 0.99909572959866955 1.018592303530282
decision_type=2 2 2 2 2 2 2 2 2 2 2 2 2 2 2 2 2 2 2 2 2 2 2 2 2 2 2 2 2 2
left_child=1 3 9 -1 14 6 -5 12 -9 22 18 -12 16 29 -4 -15 17 -8 -11 -17 26 -22 23 24 -3 -26 -18 -25 -6 -10
right_child=-2 2 4 5 28 -7 7 8 13 10 11 -13 -14 15 -16 19 20 -19 -20 -21 21 -23 -24 27 25 -27 -28 -29 -30 -31
leaf_value=-2.2533078817400014 -2.6668325684438878 -2.6327082603376102 -2.4142820377231136 -2.6325237375851742 -2.492019856370816 -2.6021818461080826 -2.3033045745568779 -2.6479846508433753 -2.5229828484584229 -2.2597591781464526 -2.6626280460279079 -2.3258897470860491 -2.668356633713338 -2.2695843522036911 -2.6574610138058992 -2.5201978863630918 -2.3641507432160798 -2.5529934313010378 -2.6316426546535525 -2.3228573025935799 -2.5627487636675554 -2.409304471916359 -2.6598801006682136 -2.6626886397238918 -2.6642969149995763 -2.3107688211359845 -2.6403636606058187 -2.303311636376411 -2.6270373003349308 -2.3121389546407118
leaf_weight=9.7810919098556024 1495.7919360920787 324.67033001407981 35.058996014297009 25.880300790071487 6.6854183916002539 72.194852782413363 6.54986898973584 5.814964458346366 10.052720949053763 7.0018768757581693 26.207011779770259 2.9251619558781377 8.4626053720712644 15.269855501130225 2.9752004798501721 6.4754328746348619 5.9313109666109076 6.5445102043449879 1.0891478657722471 7.0967933088541013 61.561031186953187 5.0385313481092444 120.13854828104377 0.84210523217916478 4.2757587432861319 3.3355957753956318 1.6596761979162691 4.1576202772557727 19.664611918851733 2.6008551698178044
leaf_count=277 17529 6413 782 472 153 993 175 68 184 197 444 80 109 423 62 120 144 123 34 183 1248 107 1205 28 120 88 8 107 283 72
internal_value=-2.63903 -2.58768 -2.61383 -2.52945 -2.49818 -2.54081 -2.51464 -2.49336 -2.41224 -2.62892 -2.5578 -2.62796 -2.53367 -2.37919 -2.43338 -2.33701 -2.52056 -2.42627 -2.30875 -2.41523 -2.5375 -2.55077 -2.63473 -2.62576 -2.62979 -2.50751 -2.42416 -2.36371 -2.59224 -2.47719
internal_weight=2305.73 809.942 559.027 250.914 64.3842 241.133 168.938 143.058 47.3106 494.643 37.2232 29.1322 95.7475 41.4957 38.0342 28.8421 87.2849 13.0944 8.09102 13.5722 74.1905 66.5996 457.42 337.281 332.282 7.61135 7.59099 4.99973 26.35 12.6536
internal_count=32231 14702 9996 4706 1280 4429 3436 2964 1050 8716 755 524 1914 982 844 726 1805 298 231 303 1507 1355 7961 6756 6621 208 152 135 436 256
is_linear=0
shrinkage=1


Tree=7
num_leaves=31
num_cat=0
split_feature=34 13 9 7 40 32 19 47 7 46 11 37 21 47 19 2 15 37 19 74 9 0 38 37 21 37 47 21 7 6
split_gain=7149.05 7885.97 2251.72 994.681 831.061 597.66 419.435 542.928 592.493 336.351 343.464 311.777 178.752 167.268 164.59 138.265 116.104 115.464 109.286 107.621 255.566 126.852 242.81 102.802 90.5295 63.7392 117.158 52.0453 45.2308 38.5782
threshold=318.4104024071429 1.0136597575077635 1.1911866250000003 0.19324654519423204 -0.75328913472824754 -191.78315382499997 32.69395887169653 1.068097650765971 0.26062288773471215 0.90954106715149396 -0.27021932105263147 0.091333863401237059 26.982118375000002 0.050222825646210355 50.7160958359297 -0.20936272499999992 1.0823975750000001 0.10795308683746273 40.18890911303582 1.0000000180025095e-35 1.0315552250000002 0.17376736996553885 116.68516913582066 0.14977863230541372 85.707097550000015 0.096175858694448266 -1.0539125778735294 38.652522811842111 0.23287195935335883 -0.26433777124999985
decision_type=2 2 2 2 2 2 2 2 2 2 2 2 2 2 2 2 2 2 2 2 2 2 2 2 2 2 2 2 2 2
left_child=2 3 5 16 -4 11 -7 9 -9 10 13 -1 -5 -8 -6 -10 -2 -14 -11 29 21 22 24 -22 -21 -26 -27 -18 -28 -12
right_child=1 -3 4 12 14 6 7 8 15 18 19 -13 17 -15 -16 -17 27 -19 -20 20 23 -23 -24 -25 25 26 28 -29 -30 -31
leaf_value=-2.641746721613961 -2.6499010508285283 -2.6643851990587297 -2.6616891593126342 -2.6636632796025701 -2.6225369954518274 -2.6672184754324291 -2.2929699915952106 -2.6218411916861672 -2.2667757184997592 -2.5638891793082941 -2.3582810059078501 -2.2788951988015742 -2.5221319841100502 -2.5776145957038832 -2.2532423180091476 -2.6049882781981029 -2.6031368205032703 -2.2638285185452878 -2.3076178990018885 -2.649953734926104 -2.6390573338624139 -2.6564881703317007 -2.3074944604904917 -2.2727273571761026 -2.6441505777199179 -2.6656180255922166 -2.5613842657164323 -2.3984735995240611 -2.2944840941223839 -2.6586333883364364
leaf_weight=3.4014808088541013 6.4515552259981614 103.4958518370986 6.7963882423937347 1.0123358629643906 1.1844215057790304 1652.2294552326202 3.3952995240688315 13.18768221512437 8.2177962064743024 2.8828092701733103 0.28453201055526633 5.5281110517680645 1.7300637327134598 4.1473159492015839 17.754457663744688 1.2989215813577164 1.7128415592014787 98.877028834074736 3.2889780849218369 15.070999231189495 0.94867780804634039 53.857996754348278 2.6267828196287146 2.5006542131304741 2.5399151593446723 1.644536845386029 0.87113899737596456 3.5988230817019939 2.4124315865337849 282.78447554260492
leaf_count=87 197 55 5 9 28 26125 94 260 232 54 8 153 42 60 499 20 39 2719 90 147 30 319 72 70 79 8 21 98 67 544
internal_value=-2.63895 -2.47505 -2.65598 -2.30233 -2.37764 -2.65946 -2.66053 -2.63306 -2.49088 -2.6416 -2.64526 -2.41594 -2.27211 -2.44624 -2.27597 -2.31179 -2.56455 -2.26812 -2.42374 -2.64943 -2.61931 -2.63054 -2.57505 -2.37024 -2.60769 -2.52299 -2.4611 -2.46203 -2.36002 -2.65822
internal_weight=2305.73 216.879 2088.86 113.383 25.7353 2063.12 2054.19 401.961 22.7044 379.257 373.085 8.92959 101.619 7.54262 18.9389 9.51672 11.7632 100.607 6.17179 365.542 82.4731 79.0238 25.1658 3.44933 22.539 7.46802 4.92811 5.31166 3.28357 283.069
internal_count=32231 3159 29072 3104 532 28540 28300 2175 512 1663 1519 240 2770 154 527 252 334 2761 144 1365 813 713 394 100 322 175 96 137 88 552
is_linear=0
shrinkage=1


Tree=8
num_leaves=5
num_cat=0
split_feature=12 43 21 21
split_gain=23895.4 75.8686 133.715 541.386
threshold=1.0000000180025095e-35 0.399059972388913 77.878089752272743 108.90707033333335
decision_type=2 2 2 2
left_child=1 2 -1 -4
right_child=-2 -3 3 -5
leaf_value=-2.2554103241934667 -2.6690545727003103 -2.2509538187280564 -2.2574481710997816 -2.6676610642105567
leaf_weight=18.11338679492474 2166.355921946466 108.01551751047373 9.0517799705266935 4.1971385665237895
leaf_count=5 32110 21 3 92
internal_value=-2.64455 -2.26394 -2.30987 -2.38687
internal_weight=2305.73 139.378 31.3623 13.2489
internal_count=32231 121 100 95
is_linear=0
shrinkage=1


Tree=9
num_leaves=31
num_cat=0
split_feature=9 3 47 24 77 5 8 38 71 58 5 36 5 26 9 47 47 2 21 31 46 47 14 12 43 40 3 47 11 38
split_gain=12575.8 1609.42 893.519 723.119 612.082 328.496 459.502 325.222 302.406 264.538 752.216 233.312 232.37 215.655 196.584 587.083 136.056 131.873 121.96 109.906 109.04 109.006 104.378 117.144 94.0422 105.031 87.158 86.4174 83.1829 433.557
threshold=-0.49903559999999986 0.20232262499999998 1.068097650765971 -1.171732803176692 1.0000000180025095e-35 -0.038187376785714246 -0.61687331710526305 1.9303553761250638 1.0000000180025095e-35 1.0000000180025095e-35 0.33093998421052634 1.0139712744260347 0.053226725219298207 -7.4707035999999993 -0.45372314999999991 1.6201653525258413 -1.0539125778735294 -0.072703244736842074 15.602112775000002 15.27567331420363 1.3441890107460133 -0.950399883793554 0.36089838684210529 0.32929809473057653 -0.25098332815528329 0.040279896302021896 0.18348736904761906 -1.157425271953505 -0.55394006450501243 45.79823210921095
decision_type=2 2 2 2 2 2 2 2 2 2 2 2 2 2 2 2 2 2 2 2 2 2 2 2 2 2 2 2 2 2
left_child=1 2 3 7 -3 6 18 16 13 14 -11 -4 24 27 15 19 -1 -18 -5 -2 -6 -14 23 -23 25 -7 -24 -9 29 -16
right_child=9 4 11 5 20 12 -8 8 -10 10 -12 -13 21 -15 28 -17 17 -19 -20 -21 -22 22 26 -25 -26 -27 -28 -29 -30 -31
leaf_value=-2.3005077999135772 -2.6638855173377394 -2.6520298047457578 -2.2755898253836824 -2.3796293820865926 -2.4005748574713421 -2.4322330105407106 -2.6552665046607693 -2.6150033417934848 -2.666906524117016 -2.6512584363331273 -2.314246585513005 -2.5593454514098219 -2.6538571708670493 -2.3151231786142441 -2.4445923989702436 -2.3141699826759075 -2.6680730678209277 -2.3847103822006184 -2.6040975981565491 -2.3706379755572624 -2.6653504605702878 -2.3023206201276114 -2.3569061943899237 -2.6671105498272731 -2.6541335588703987 -2.622740172498351 -2.6390573212727904 -2.4146781860924662 -2.6688150130746076 -2.6689287315506678
leaf_weight=1.5810654610395429 26.280121263116602 40.467999298125505 43.408821292221546 31.446011323481798 13.381366953253742 4.4437511041760462 7.428532510995864 2.3130104057490852 2.6896633505821219 31.381717279553413 7.2522473707795134 2.8721673488616934 2.4399882704019573 53.335811607539654 9.197332598268984 5.5048785395920268 5.995990812778472 1.8495179563760746 2.4098785966634741 1.101967118680476 1.5186203047633178 0.9669737815856928 8.9882700107991678 2.9820258915424347 17.78192700445652 6.2361809052526951 1.1016519218683232 14.12880305200815 1908.6874690726399 46.560027729719877
leaf_count=22 635 798 600 527 227 84 238 52 71 554 103 41 49 814 144 85 153 32 15 18 43 13 151 75 393 158 30 242 25820 44
internal_value=-2.63953 -2.44709 -2.40986 -2.44226 -2.59146 -2.50323 -2.44213 -2.37835 -2.35676 -2.66503 -2.5874 -2.29292 -2.55974 -2.34474 -2.66654 -2.59393 -2.54583 -2.59929 -2.39537 -2.65104 -2.42776 -2.47041 -2.43843 -2.57242 -2.61197 -2.54201 -2.38745 -2.44236 -2.66776 -2.6317
internal_weight=2305.73 269.768 214.4 168.119 55.368 86.2252 41.2844 81.8939 72.4673 2035.97 38.634 46.281 44.9408 69.7776 1997.33 32.887 9.42657 7.84551 33.8559 27.3821 14.9 16.4789 14.0389 3.949 28.4619 10.6799 10.0899 16.4418 1964.44 55.7574
internal_count=32231 4828 3760 3119 1068 1733 780 1386 1179 27403 657 641 953 1108 26746 738 207 185 542 653 270 318 269 88 635 242 181 294 26008 188
is_linear=0
shrinkage=1


Tree=10
num_leaves=31
num_cat=0
split_feature=6 34 37 33 6 44 59 26 24 8 37 37 39 47 7 2 37 43 33 37 34 16 47 8 8 71 8 5 3 19
split_gain=14844.3 3899.13 4779.02 456.183 222.178 430.479 292.584 270.096 191.112 164.801 146.445 126.971 771.402 118.351 116.648 112.551 109.569 66.966 84.9862 65.7775 59.7482 63.9361 86.84 54.5083 46.7157 28.517 214.281 37.3386 23.3116 17.0615
threshold=0.17718372555451131 46.849973183771944 0.098615922576706996 14.642334875000001 0.077844705919486237 0.66736925336024411 1.0000000180025095e-35 -14.539592444047617 -8.7737664903399111 -0.40324707499999995 0.081167356855826198 0.096175858694448266 21.155770386046814 0.9645849566859952 0.22547763536529 -0.75593652412280699 0.014512022627112119 -0.62847868127155471 32.809129040789479 0.052047189527188321 46.849973183771944 0.19945070000000001 0.15373551972618602 0.045043999999999952 0.031871200000000009 1.0000000180025095e-35 -0.36424562499999996 -0.10041197499999997 0.39522705000000002 5.0412610026557969
decision_type=2 2 2 2 2 2 2 2 2 2 2 2 2 2 2 2 2 2 2 2 2 2 2 2 2 2 2 2 2 2
left_child=4 29 3 8 25 6 11 15 -3 -5 23 12 20 24 -4 -8 -11 18 -18 -15 -6 22 -22 -7 -14 -1 27 -27 -28 -2
right_child=1 2 14 9 5 10 7 -9 -10 16 -12 -13 13 19 -16 -17 17 -19 -20 -21 21 -23 -24 -25 -26 26 28 -29 -30 -31
leaf_value=-2.6683678246267348 -2.6675294038542847 -2.2720868220874002 -2.4056525263770481 -2.5962726329690144 -2.6673622389883214 -2.2597618214603488 -2.661662066049407 -2.6673732757495205 -2.6390573303744689 -2.5266976491929913 -2.6479634405769947 -2.6689002935940009 -2.2861802318566826 -2.3340338221078554 -2.6598823190918846 -2.2594303893730454 -2.6027549054597965 -2.2508496289475803 -2.2737867063503536 -2.6410368543505482 -2.6005555584509512 -2.6640300229409219 -2.29527782291134 -2.5681559999210566 -2.5669914513836298 -2.5151087942076469 -2.2953632663759405 -2.665555922217238 -2.5184886540559575 -2.6169657831909783
leaf_weight=1822.2217735573649 38.287112928926945 1.7237487249076364 1.5990876406431187 1.3468065336346615 57.797883611172438 3.8235880807042113 0.71133002638816822 3.4628297984600049 4.3064951300621024 1.4718911536037911 1.4324980005621908 121.92983219772577 6.500888451933859 0.80367675051093135 36.420859638601542 3.9489516243338585 1.2897260002791875 134.42501425743103 1.5983851812779901 1.9932081177830694 2.3980556093156333 3.7118162102997303 1.238223537802696 0.68273528665304173 0.67380445450544346 1.439066894352435 1.4498762823641294 39.207533858716488 0.86165348067879666 6.9754054173827162
leaf_count=24687 83 55 49 13 145 122 20 7 19 28 26 768 203 25 750 126 10 4287 51 45 31 41 39 7 12 31 46 427 23 55
internal_value=-2.63919 -2.41026 -2.34898 -2.27109 -2.6645 -2.63534 -2.64267 -2.46736 -2.52949 -2.26008 -2.38569 -2.65 -2.61936 -2.37499 -2.64853 -2.32064 -2.25687 -2.25408 -2.41356 -2.54637 -2.65706 -2.57716 -2.48938 -2.30328 -2.31079 -2.6678 -2.64354 -2.65986 -2.36884 -2.65964
internal_weight=2305.73 229.445 184.182 146.162 2076.29 211.109 205.171 8.12311 6.03024 140.132 5.93882 197.047 75.1176 9.97158 38.0199 4.66028 138.785 137.313 2.88811 2.79688 65.146 7.3481 3.63628 4.50632 7.17469 1865.18 42.9581 40.6466 2.31153 45.2625
internal_count=32231 5400 5262 4463 26831 1617 1462 153 74 4389 155 1309 541 285 799 146 4376 4348 61 70 256 111 70 129 215 25214 527 458 69 138
is_linear=0
shrinkage=1


Tree=11
num_leaves=31
num_cat=0
split_feature=16 8 6 12 72 16 58 31 0 12 12 46 6 6 73 46 36 0 8 46 0 53 0 44 47 36 72 36 47 0
split_gain=4434.89 4126.66 1442.44 685.821 648.47 594.11 500.708 500.315 494.57 419.285 394.05 370.971 369.168 645.527 318.351 319.614 300.283 253.514 239.793 233.887 289.574 209.445 206.332 176.375 169.243 465.584 165.22 162.43 137.673 130.345
threshold=0.022811150000000061 -0.30258756015037586 -0.015620910582706751 0.97619821793546391 1.0000000180025095e-35 0.12163338065476194 1.0000000180025095e-35 0.1988233985838421 -0.079025090324248107 0.86400116764880963 0.95729103046365938 1.0544237150163338 -0.44739258624999995 -0.073515464358054214 1.0000000180025095e-35 -1.046374679023842 1.0134948670847808 -0.21606699086152875 -0.32521974999999997 -0.75660938329416272 0.081479243449248104 1.0000000180025095e-35 -0.37697638673245609 -0.80464159829740101 1.8271907406857923 1.0003584458116905 1.0000000180025095e-35 0.99693173954473779 1.068097650765971 0.32941862940476196
decision_type=2 2 2 2 2 2 2 2 2 2 2 2 2 2 2 2 2 2 2 2 2 2 2 2 2 2 2 2 2 2
left_child=1 4 3 7 6 12 10 -3 -6 -8 22 17 -2 14 15 18 26 -9 -14 -5 28 23 -1 -19 -25 -26 -17 -24 -21 -18
right_child=5 2 -4 19 8 -7 9 11 -10 -11 -12 -13 13 -15 -16 16 29 21 -20 20 -22 -23 27 24 25 -27 -28 -29 -30 -31
leaf_value=-2.3863683044385193 -2.6625505156476619 -2.6029977573939238 -2.6687492419974421 -2.3192417528313176 -2.2549367740218043 -2.6674294181973139 -2.6676820237924725 -2.6659330712313238 -2.6676220703876443 -2.2844710110825841 -2.3477389569015963 -2.6248213659345181 -2.6125627407186527 -2.6571572532275507 -2.3210002972635277 -2.6084202614407275 -2.4392311746966242 -2.664343804962614 -2.3270237448487081 -2.639057331138102 -2.3973273824904107 -2.6080200074073914 -2.3837116808283172 -2.2779533688198308 -2.6098246437460966 -2.2587444703080175 -2.3738955582728378 -2.6618826958259389 -2.4844871700586166 -2.666840455064623
leaf_weight=2.42597697302699 188.94994257390499 6.5915484726428977 19.374883104115725 5.5377769619226447 7.0435075163841248 1423.9402944408357 4.2626612037420255 1.8204548209905613 4.0804250538349134 6.2658691480755806 3.7096579372882834 3.7433818913996211 4.1131819859147072 140.41621738672256 4.3939316198229781 135.60511057823896 15.139012090861799 1.1729323603212822 7.5549263060092908 15.803381580859424 10.286270488053558 2.1283507496118537 1.8066359125077713 67.366557139903307 5.6406042203307143 8.6014817245304567 2.6648410856723777 195.04982176795602 7.6376101076602927 2.6065112352371207
leaf_count=42 3017 197 57 86 87 17702 69 52 116 86 60 108 124 765 57 2207 221 39 116 413 175 64 33 915 148 108 48 4925 162 32
internal_value=-2.63905 -2.54545 -2.42681 -2.39241 -2.62775 -2.65754 -2.63942 -2.34955 -2.40549 -2.43871 -2.64994 -2.33118 -2.62946 -2.60945 -2.57051 -2.57725 -2.58869 -2.31857 -2.42635 -2.49889 -2.52933 -2.31107 -2.65572 -2.30351 -2.29827 -2.39641 -2.60369 -2.65919 -2.58817 -2.4728
internal_weight=2305.73 380.35 155.705 136.33 224.645 1925.38 213.521 97.0653 11.1239 10.5285 202.992 90.4738 501.444 312.494 172.078 167.684 156.015 86.7304 11.6681 39.265 33.7273 84.9099 199.282 82.7816 81.6086 14.2421 138.27 196.856 23.441 17.7455
internal_count=32231 7942 2524 2467 5418 24289 5215 1631 203 155 5060 1434 6587 3570 2805 2748 2508 1326 240 836 750 1274 5000 1210 1171 256 2255 4958 575 253
is_linear=0
shrinkage=1


Tree=12
num_leaves=31
num_cat=0
split_feature=23 22 23 31 6 46 25 62 32 0 6 13 31 2 6 75 34 7 4 0 12 31 6 13 46 43 40 24 27 6
split_gain=2757.86 4043.33 3450.26 2263.58 940.296 648.961 651.459 642.281 590.185 495.009 425.657 401.144 368.601 1316.27 458.739 280.858 265.839 249.318 219.397 194.837 180.494 169.029 474.482 166.266 136.732 130.555 119.082 118.857 113 107.571
threshold=-2.7862550499999998 177.09228147738096 -12.466685811309523 66.876483812808274 0.034478902794486212 -1.2636986508211014 35.758644721326483 1.0000000180025095e-35 -164.03351834999998 0.066838971268797023 0.12266402296992486 0.18118691721211561 72.505452943942956 -0.20188318181818177 0.058211075100250607 1.0000000180025095e-35 265.38437478471184 0.19324654519423204 1.1965852618421053 -0.096898199999999976 0.93084079018483712 60.550741666716526 -0.047196860864661669 0.082583511942705815 1.0544237150163338 -0.029407392303687278 0.50899638660933466 19.147477158414787 123.15979765 1.0000000180025095e-35
decision_type=2 2 2 2 2 2 2 2 2 2 2 2 2 2 2 2 2 2 2 2 2 2 2 2 2 2 2 2 2 2
left_child=1 2 7 5 8 6 -4 10 -5 -8 16 21 -2 20 -15 25 27 29 26 -18 -14 -7 -23 -22 -25 -13 -10 -1 -20 -3
right_child=12 17 3 4 -6 11 9 -9 18 -11 -12 15 13 14 -16 -17 19 -19 28 -21 23 22 -24 24 -26 -27 -28 -29 -30 -31
leaf_value=-2.2612439628252998 -2.6658979562991627 -2.4191984662370287 -2.6632988429810345 -2.5972057372840398 -2.6124260207451946 -2.653142023717181 -2.6431825245359835 -2.6263539739182762 -2.2584296470620631 -2.2886760280930778 -2.6546695725658926 -2.4086646770471072 -2.6626808453208652 -2.2675494819142941 -2.6616945496774038 -2.2801663846157352 -2.6295961344946033 -2.6648893395786075 -2.2863321274481039 -2.3414407744175043 -2.6680568137714236 -2.3275555172638493 -2.6606034892167862 -2.3329373119266164 -2.5819602663890859 -2.614874195979219 -2.611464894360819 -2.598268058067517 -2.5212715147449622 -2.6664297256145626
leaf_weight=53.564032506197691 1437.9360792189837 5.3009353131055823 11.130764171481134 7.2492298036813727 15.786038964986799 164.94277562946081 4.666998956352475 6.3118051439523688 32.525488391518593 14.399219308048485 3.0356513634324065 3.6553976200521019 98.988732164725661 12.028859969228504 3.3711635656654826 4.0741200260817996 3.3693015798926353 362.64480827003717 2.7616442106664163 5.6905598863959295 5.8966497592627993 5.5123885236680534 12.176939237862824 3.8566642515361291 4.1664297133684158 10.728580074384807 0.91875606775283714 1.0051138065755356 5.8551726490259171 2.1834118738770485
leaf_count=1142 21797 91 243 105 267 1812 20 28 702 313 94 66 1692 261 106 89 20 2577 60 130 63 106 114 88 65 56 7 9 60 48
internal_value=-2.63901 -2.59126 -2.52105 -2.56661 -2.41048 -2.61065 -2.48121 -2.33639 -2.34607 -2.37518 -2.30904 -2.63017 -2.66155 -2.61286 -2.35361 -2.49728 -2.29251 -2.66133 -2.30306 -2.447 -2.64841 -2.64366 -2.55582 -2.54769 -2.45959 -2.56103 -2.26793 -2.26731 -2.44245 -2.49113
internal_weight=2305.73 739.489 369.36 296.384 65.0963 231.287 30.197 72.9765 49.3103 19.0662 66.6647 201.09 1566.24 128.308 15.4 18.4581 63.629 370.129 42.0611 9.05986 112.908 182.632 17.6893 13.9197 8.02309 14.384 33.4442 54.5691 8.61682 7.48435
internal_count=32231 8159 5443 4020 1201 2819 576 1423 934 333 1395 2243 24072 2275 367 211 1301 2716 829 150 1908 2032 220 216 153 122 709 1151 120 139
is_linear=0
shrinkage=1


Tree=13
num_leaves=31
num_cat=0
split_feature=12 33 31 4 12 45 31 31 9 14 14 31 42 31 42 37 42 0 37 13 9 23 14 44 47 37 42 26 31 20
split_gain=2522.76 5454.52 3845.3 1174.03 580.075 1025.41 722.482 2231.67 504.138 306.904 262.019 248.11 662.974 231.942 227.44 196.984 194.795 190.83 273.394 255.043 149.896 145.45 128.546 182.337 146.52 123.712 393.957 703.78 282.154 102.694
threshold=0.95572061959273202 43.936595809523816 53.998724066709272 0.70601447919799509 0.88711977484649152 -0.52684333978175957 16.6009859188981 44.880961667584039 0.26244325000000002 0.83034662500000012 0.84632534962406025 19.437592631341676 0.040500154701058035 22.686807607703329 0.22922032945118428 0.025520234366701495 0.073258652587736145 0.35009133693167582 0.052904379305630474 0.14279493225174991 0.30902823809523816 -4.852676715624999 0.81317899166666685 0.24159965873587883 0.050222825646210355 0.029316131919996033 0.24145590426109048 -58.690354380952378 25.017872518962164 -38.244631249999991
decision_type=2 2 2 2 2 2 2 2 2 2 2 2 2 2 2 2 2 2 2 2 2 2 2 2 2 2 2 2 2 2
left_child=4 11 3 8 -1 6 -6 15 13 -5 -4 -2 -13 -3 -9 -8 -12 25 -19 -20 -17 -16 23 -15 -25 -7 -27 29 -29 -28
right_child=1 2 10 9 5 17 7 14 -10 -11 16 12 -14 22 21 20 -18 18 19 -21 -22 -23 -24 24 -26 26 27 28 -30 -31
leaf_value=-2.6672127328268882 -2.6690345469428904 -2.5989335262923747 -2.6507314135543534 -2.6109090808880357 -2.6688622469968606 -2.6684270531536098 -2.6646490765055355 -2.6577809796734475 -2.5284311315633441 -2.324873258036797 -2.6265331650760162 -2.6593045753292808 -2.3369501787054556 -2.2777311536950888 -2.6458459149265154 -2.2708486914766439 -2.3018958883797502 -2.6682100412128356 -2.2689573526654958 -2.6663628348374298 -2.5913674693390059 -2.3103539060976179 -2.265284357606197 -2.6175534338732023 -2.3040643718525677 -2.6568751226226026 -2.6525831546199448 -2.6584967516141575 -2.2947686978868482 -2.5248866790371709
leaf_weight=1230.1570114307106 263.69732597097754 2.1649492383003226 63.061725046485662 17.312756791710857 30.662182286381721 229.92945317178965 1.2610950842499757 39.165817990899086 8.7942256890237314 4.1108120232820502 3.1681076362729064 22.907621607184414 7.5518334135413161 7.9158936068415624 1.8691504187881944 28.268432874232534 3.4687870033085346 6.9817311465740186 4.3162661194801331 2.1267938800156116 1.4332777597010125 2.8887665793299666 75.768664006143808 3.7547299116849899 2.0213575847446918 192.69775483384728 29.187136881053444 2.348108332604169 9.819019138813017 6.9230724126100567
leaf_count=15310 3001 35 883 103 635 4403 14 355 174 93 73 65 149 169 41 593 77 89 92 46 22 63 1603 26 44 3384 346 19 214 110
internal_value=-2.63927 -2.57854 -2.45399 -2.3524 -2.65548 -2.63103 -2.54635 -2.49617 -2.3094 -2.55468 -2.6318 -2.65966 -2.57875 -2.28855 -2.63388 -2.30155 -2.45393 -2.6495 -2.53841 -2.39901 -2.286 -2.4402 -2.28113 -2.37108 -2.5035 -2.65269 -2.63768 -2.56113 -2.36479 -2.62794
internal_weight=2305.73 485.699 191.542 121.843 1820.04 589.878 105.549 74.8865 100.42 21.4236 69.6986 294.157 30.4595 91.6256 43.9237 30.9628 6.63689 484.329 13.4248 6.44306 29.7017 4.75792 89.4606 13.692 5.77609 470.905 240.975 48.2773 12.1671 36.1102
internal_count=32231 6495 3280 2247 25736 10426 1723 1088 2051 196 1033 3215 214 1877 459 629 150 8703 227 138 615 104 1842 239 70 8476 4073 689 233 456
is_linear=0
shrinkage=1


Tree=14
num_leaves=24
num_cat=0
split_feature=34 0 33 65 25 20 32 20 59 41 44 54 12 34 42 60 0 18 12 41 42 20 9
split_gain=2676.27 2828.35 3056.44 1815.33 2684.31 1133.7 926.709 1106.45 708.487 793.515 698.688 428.728 445.876 393.885 215.49 153.404 690.425 115.244 97.4889 290.522 40.3644 21.2417 13.0173
threshold=154.34418657500004 -0.35780179565476183 48.574832100000009 1.0000000180025095e-35 138.16064846202514 -17.150879949999997 -63.065523633333328 -89.111333524999992 1.0000000180025095e-35 -0.14313053266785389 0.2684563792340679 1.0000000180025095e-35 0.95184657106373904 290.01706373928579 0.15987560244397372 1.0000000180025095e-35 0.1220171974530075 -30.652149288562025 0.97231655346491241 -0.78653106597670897 0.55644260360126208 -99.4755199272727 1.9587769000000004
decision_type=2 2 2 2 2 2 2 2 2 2 2 2 2 2 2 2 2 2 2 2 2 2 2
left_child=-1 -2 10 5 -5 6 8 14 11 22 -3 15 -13 -7 -8 -4 -17 -12 19 -19 -6 -16 -10
right_child=1 2 3 4 20 13 7 -9 9 -11 17 12 -14 -15 21 16 -18 18 -20 -21 -22 -23 -24
leaf_value=-0.029917808157296572 0.25912249650467839 -0.029305765998091534 -0.02991266474193377 -0.02981662004597822 0.24722661824464648 -0.028807671273607498 -0.027997991734666487 -0.029722748045040204 0.20526113019904202 -0.029642843782708237 0.37824238249602382 -0.029273266002542802 0.26348388990472765 0.26394037155093503 0.2074787023299994 -0.029776142514580262 0.24660710047051945 0.26479941306232385 0.26776171156230533 -0.028733473518983702 0.30491937847460709 0.26824974462142892 0.2645940360884701
leaf_weight=1219.5236002299935 48.061244294047356 8.6831271573901159 711.46156025864184 49.90633606351912 30.029776357114315 5.2451764456927803 2.788088994100689 29.639994539320469 11.736869990825653 20.218599084764719 6.7461182661354533 9.1750299911946058 9.3886165488511324 18.846826361492276 11.627536550164224 42.243896059691906 9.9671927653253061 9.3464713115245068 37.31036315113306 4.4184201397001752 24.881330590695143 18.575324058532715 9.3524150848388672
leaf_count=19839 49 235 8535 1269 50 128 79 612 60 414 4 236 3 6 64 454 15 2 6 108 5 2 1
internal_value=0.000897762 0.0341673 0.0241455 0.0112237 0.129389 -0.00239245 -0.00792628 0.103219 -0.0163941 0.104531 0.221017 -0.0227962 0.119247 0.200225 0.222478 -0.0262682 0.0232991 0.258646 0.242083 0.170834 0.27393 0.245715 0.232839
internal_weight=2349.17 1129.65 1081.59 1015.08 104.817 910.267 886.175 62.6309 823.544 41.3079 66.5045 782.236 18.5636 24.092 32.9909 763.673 52.2111 57.8214 51.0753 13.7649 54.9111 30.2029 21.0893
internal_count=32176 12337 12288 11933 1324 10609 10475 757 9718 475 355 9243 239 134 145 9004 469 120 116 110 55 66 61
is_linear=0
shrinkage=0.03


Tree=15
num_leaves=31
num_cat=0
split_feature=6 34 2 17 3 41 33 25 3 35 38 37 38 3 17 42 1 20 10 14 23 62 3 42 2 63 2 38 44 43
split_gain=3810.2 12254.9 481.542 347.018 871.809 304.93 158.751 140.01 104.056 88.8746 84.7234 317.891 65.8454 193.168 57.6477 33.7327 33.5245 76.215 30.6619 27.7417 26.0015 18.4908 183.037 29.8968 89.5246 20.1547 98.6391 354.903 12.1568 49.9893
threshold=-0.011437310466791974 70.40945695883461 -0.32899632499999992 0.99190973646616565 -0.030161631578947298 -0.87843773215930299 12.676761828947372 7.5830001978424573 -0.16831054999999998 -7.231522046874999 36.304222386446206 0.071421512363625941 9.6636280284881533 0.096041672368421052 0.99190973646616565 0.86877799231456543 0.080856749529457969 -11.610122623809522 0.86990609940476193 0.710266175 -2.4287576940789473 1.0000000180025095e-35 -0.10144044999999999 0.78605306620828752 -0.29324957499999998 1.0000000180025095e-35 0.18377682500000003 11.655461498668689 -0.70172341619572298 0.33833940163074422
decision_type=2 2 2 2 2 2 2 2 2 2 2 2 2 2 2 2 2 2 2 2 2 2 2 2 2 2 2 2 2 2
left_child=3 2 7 21 -5 -3 9 8 19 -7 11 14 -4 -14 -8 28 -15 20 -6 -2 -18 25 -23 -24 -25 -1 -27 -28 29 -12
right_child=1 5 12 4 18 6 10 -9 -10 -11 15 -13 13 16 -16 -17 17 -19 -20 -21 -22 22 23 24 -26 26 27 -29 -30 -31
leaf_value=-0.029481495129744906 0.15323160502130048 0.24792815042073638 0.26565324393153722 0.2706912716419268 -0.029755913681422701 -0.026473456202191166 -0.029673288135955409 -0.029045829091611113 0.25821739600587179 0.24896470213982924 -0.028050570415688064 0.26593493533120205 -0.028030923701023652 0.25658413865497143 0.23017398527318422 0.11800723706124966 0.1588931592927304 0.25997603172060868 0.10945842042116857 -0.02747440848950447 -0.026591101463325339 0.19085503077948587 -0.029846119263625914 0.23584841633488349 -0.028577227875216542 -0.029859636887613377 -0.029383688048676405 0.31422801356017571 -0.029475434929296059 0.24140795403437132
leaf_weight=1419.0380745753646 1.0304258055984976 3.6295754462480536 172.16108604520559 12.297264855355023 32.15327387675643 1.5784969162195919 20.196281258016832 6.3423481341451406 4.2099316716194135 2.8696177117526522 3.1156800426542755 4.1046901531517497 2.6519340146333006 21.579173399135474 0.69736233726143737 1.3037565704435099 0.99610977619886432 3.4706694893538943 1.3847932964563359 2.236542159691453 1.6786001343280075 3.652780942618846 65.565459586679935 1.458890166133642 4.3019670508801928 62.082415455952287 10.598653519526122 3.5206971224397412 480.3633916862309 0.66571412235498417
leaf_count=19650 6 20 278 20 439 49 576 106 8 9 101 17 41 59 4 21 11 7 18 40 33 38 1305 6 92 1146 308 19 7742 7
internal_value=0.000189569 0.0568225 0.246424 -0.0255637 0.0557007 -0.0223159 -0.0242745 0.0741274 0.161269 0.152128 -0.025847 0.0278683 0.258122 0.21461 -0.0198024 -0.0286245 0.237944 0.16895 -0.0236102 0.0314888 0.0446423 -0.0279411 -0.0133027 -0.0240527 0.0407561 -0.0286722 -0.0135434 0.0576931 -0.0290498 0.0236121
internal_weight=2350.94 734.881 216.357 1616.05 45.8353 518.525 514.895 13.8192 7.4769 4.44811 510.447 24.9983 202.538 30.3765 20.8936 485.449 27.7246 6.14538 33.5381 3.26697 2.67471 1570.22 74.9791 71.3263 5.76086 1495.24 76.2018 14.1194 484.145 3.78139
internal_count=32176 9135 589 23041 477 8546 8526 160 54 58 8468 597 429 151 580 7871 110 51 457 46 44 22564 1441 1403 98 21123 1473 327 7850 108
is_linear=0
shrinkage=0.03


Tree=16
num_leaves=31
num_cat=0
split_feature=59 31 47 27 2 47 36 11 36 71 6 31 14 47 8 38 9 35 13 36 31 19 11 47 14 58 14 11 3 19
split_gain=3930.76 1957.71 1235.59 833.072 742.9 1862.77 1685.99 698.717 375.356 259.638 350.074 251.323 273.955 245.554 238.196 269.797 172.194 170.713 107.167 119.392 93.5433 449.743 280.055 222.473 208.596 194.564 74.6975 55.9343 92.8055 54.4726
threshold=1.0000000180025095e-35 35.766257878514558 -1.3299464287534646 5.0476078000000006 0.14537881071428574 -0.74337449563360269 1.0035298976294669 0.094061274999999986 0.99921702774257637 1.0000000180025095e-35 -0.12364410810776939 2.7396551562906652 0.7474277488095239 -0.84688718971357824 -0.56928648157894723 9.2138079047704675 -0.25508256578947364 -1.5986794657894736 0.027933363341564526 1.0124477112614325 25.017872518962164 5.8064637456576174 -0.76511453289473674 -1.2781900817134766 0.96642255000000021 1.0000000180025095e-35 0.88660640263157908 -0.64649631973684196 -0.015368674999999948 11.092577044510103
decision_type=2 2 2 2 2 2 2 2 2 2 2 2 2 2 2 2 2 2 2 2 2 2 2 2 2 2 2 2 2 2
left_child=2 3 7 -2 9 6 -6 11 -5 20 14 -1 -13 17 15 -11 18 -8 19 -10 21 -4 -23 26 25 27 29 28 -25 -24
right_child=1 -3 4 8 5 -7 13 -9 16 10 -12 12 -14 -15 -16 -17 -18 -19 -20 -21 -22 22 23 24 -26 -27 -28 -29 -30 -31
leaf_value=-0.0023925205092247526 -0.018986878101553632 -0.026664226569947318 -0.025863760529204343 -0.028929408505187798 -0.029746776008396619 -0.025652478352662489 0.27072669991766546 -0.029627237331435845 0.20792413846180194 -0.028674242462628608 -0.024959324054088721 0.00063642781489980363 0.24005877670416279 0.25672097832475682 -0.029213519325441483 0.24334254250557655 0.2491541423041165 -0.028868435700202966 0.24399531388157719 -0.0042020727189091608 -0.029282952823092446 0.21340936946044037 -0.027092497371892871 0.29152927913578919 0.21208952231688441 0.24535986706953963 0.26912770855871893 -0.015403557404156949 -0.026863627233454573 0.18913700312211201
leaf_weight=5.7149694357067338 14.439406393095849 49.100957244634628 496.13788986764848 5.0717645641416302 34.177883131429553 182.55563483946025 2.4695444703102112 20.086639622226357 3.7930767312645894 4.2233957182616058 31.931686958298087 4.9468064755201331 34.223328452557325 52.69456292130053 6.5747853983193627 14.036408348008989 95.080508960410953 5.0356410816311827 5.5408090390264979 6.0973591562360525 1189.077500782907 8.1574752740561944 1.991643613204358 1.3462970256805422 4.3819519933313122 2.7146858703345051 4.0367724169045687 64.232574613764882 1.8443714193999756 2.0184755213558674
leaf_count=165 124 659 9639 41 123 3679 5 249 13 102 231 103 159 169 143 70 291 107 21 84 14681 44 31 8 29 20 18 1126 33 9
internal_value=-0.000399011 0.13464 -0.0115293 0.195551 -0.0155014 0.0302838 0.138426 0.117222 0.222372 -0.0224227 0.0406662 0.182925 0.209977 0.233846 0.124928 0.18045 0.233948 0.0715809 0.139059 0.078117 -0.0244432 -0.0146285 0.0467408 0.0299997 0.0136645 0.000940596 0.178882 -0.00920491 0.111347 0.0829694
internal_weight=2353.73 179.124 2174.61 130.023 2109.64 276.933 94.3776 64.9717 115.584 1832.71 56.7663 44.8851 39.1701 60.1997 24.8346 18.2598 110.512 7.50519 15.4312 9.89044 1775.94 586.862 90.7242 82.5668 74.5199 70.1379 8.04689 67.4232 3.19067 4.01012
internal_count=32176 1233 30943 574 30267 4083 404 676 450 26184 546 427 262 281 315 172 409 112 118 97 25638 10957 1318 1274 1216 1187 58 1167 41 40
is_linear=0
shrinkage=0.03


Tree=17
num_leaves=15
num_cat=0
split_feature=19 39 32 45 11 34 38 6 22 74 13 37 36 36
split_gain=9763.74 6571.67 2553.23 1375.59 1236.47 1113.85 775.507 259.927 224.11 163.537 528.198 28.726 15.6742 17.6312
threshold=50.7160958359297 79.095106172208133 -164.03351834999998 -0.44560706045412296 0.44894790535714285 286.76912157500004 103.03313159437128 -0.2168672025626566 183.30994777500004 1.0000000180025095e-35 0.1729731376730195 0.26834070156834039 1.0128030693607564 1.0151352325061727
decision_type=2 2 2 2 2 2 2 2 2 2 2 2 2 2
left_child=-1 2 4 -3 -2 6 -4 -8 -9 11 -11 -10 -13 -14
right_child=1 3 5 -5 -6 -7 7 8 9 10 -12 12 13 -15
leaf_value=-0.029918237413094535 -0.029840654116709955 0.23411132935694898 -0.029292665154774581 -0.029893358753871408 0.25463401613377534 -0.029517620945838506 -0.027958808805552411 0.38129458503820818 0.21716078595714472 0.26689578764909433 -0.0292054393491657 0.26445216328954008 0.26381303112034266 0.21451737477140334
leaf_weight=1741.0294596385211 59.858705731108785 19.125978335738182 9.1259159315377456 233.16320310533047 17.741564996540546 14.23717489466071 2.9292432330548754 12.291467223316429 20.443587755784392 17.004533333703879 7.8862281255424014 172.34093775600195 17.181564304977655 20.666421744972467
leaf_count=28140 1140 40 210 1720 24 393 46 5 91 2 225 44 3 93
internal_value=0.00657317 0.108382 0.188573 -0.00978252 0.0354035 0.228951 0.242116 0.251283 0.254358 0.248093 0.173219 0.256082 0.259749 0.237611
internal_weight=2365.03 623.997 371.707 252.289 77.6003 294.107 279.87 270.744 267.815 255.523 24.8908 230.633 210.189 37.848
internal_count=32176 4036 2276 1760 1164 1112 719 509 463 458 227 231 140 96
is_linear=0
shrinkage=0.03


Tree=18
num_leaves=31
num_cat=0
split_feature=9 14 9 36 5 8 12 31 36 41 31 38 14 9 46 51 14 17 31 13 43 46 44 3 54 54 44 20 20 8
split_gain=4182.67 2930.46 1837.42 694.324 550.407 452.341 558.874 370.129 311.181 292.831 259.72 244.154 242.364 256.048 300.49 232.886 312.532 181.135 234.751 177.284 172.155 133.665 137.397 145.416 129.692 105.902 96.8264 92.0397 69.7868 65.3512
threshold=-0.15697537368421047 0.84924315000000006 -0.28876694736842101 1.0141602930787477 -0.24084031002506259 -0.57947300952380942 0.79358723304198009 0.1988233985838421 1.0166534538861958 -0.23745431065023073 8.3253263873541545 0.89718795248480177 0.95526125000000006 -0.46023417023809521 -1.0000000180025095e-35 1.0000000180025095e-35 0.59799400833333338 0.96169964702380961 2.9463314663331053 0.036001854605781446 0.0042372694573476009 -0.75660938329416272 0.72174932733270991 1.0000000180025095e-35 1.0000000180025095e-35 1.0000000180025095e-35 -0.70172341619572298 -6.4014256190476182 -18.376015498809519 -0.46554649404761894
decision_type=2 2 2 2 2 2 2 2 2 2 2 2 2 2 2 2 2 2 2 2 2 2 2 2 2 2 2 2 2 2
left_child=1 5 3 4 -3 15 -7 -4 21 17 12 -2 13 14 -6 -1 -17 18 -9 -10 -20 -8 25 -24 -15 -23 -11 -27 -18 -5
right_child=11 2 7 29 10 6 8 9 19 26 -12 -13 -14 24 -16 16 28 -19 20 -21 -22 22 23 -25 -26 27 -28 -29 -30 -31
leaf_value=-0.025030526676251549 0.26180363472317902 -0.0086654107698821807 0.23634528312498823 0.17124185798970049 -0.0078805225452735547 0.23117903425049777 0.27000528178614364 0.26430778396129168 0.27220177307821825 0.18411591674418792 -0.0067621163015511498 -0.027256600947471753 -0.01678358339791991 0.26301544513256908 0.27158539818847449 -0.029220500840897973 -0.02295845586073025 0.020563079979595264 0.0019340427611834929 -0.014137399928467763 0.23312911932025412 -0.0015113620416831784 0.22933189539909074 -0.0078703859490410095 -0.02609569256176077 -0.026373930863400469 0.0039318135978166054 0.27564909771309953 0.27628303211503824 -0.014313027416656588
leaf_weight=235.21201555617154 2.5329849384725085 9.0365414265543205 8.9294650927185995 1.8441660720854987 7.4466954879462719 13.592434419319032 1.7519117090851057 10.434112554416062 6.9464314151555282 2.6674138549715272 3.9410325847566119 1642.799678761512 3.2124203704297534 118.58102789893746 6.330976225435732 8.1644282639026624 0.75295570865273376 13.622204234823583 9.3528912439942342 2.6484181974083185 4.1191555578261605 109.02941582351923 5.0989492610096914 4.1546802390366793 1.3765606805682171 1.4261453710496428 91.319145832210779 2.2495597563683978 6.1495030988007784 13.89363290555775
leaf_count=4101 62 174 204 39 94 318 53 270 180 62 46 19386 41 2857 157 131 16 219 99 45 110 1402 134 91 37 26 1393 57 152 220
internal_value=-0.000618074 0.060611 0.130351 0.198006 0.217893 0.0068352 0.0486122 0.0504421 0.029815 0.037627 0.232441 -0.0267939 0.239347 0.245529 0.121352 -0.0176829 0.0962332 0.108357 0.157965 0.193525 0.0740412 0.0169476 0.0130697 0.123567 0.259654 0.00386923 0.00926772 0.160077 0.24335 0.00818494
internal_weight=2348.62 703.284 306.107 165.663 149.925 397.177 146.898 140.444 133.306 131.515 140.889 1645.33 136.948 133.735 13.7777 250.279 15.0669 37.5284 23.9062 9.59485 13.472 123.711 121.959 9.25363 119.958 112.705 93.9866 3.67571 6.90246 15.7378
internal_count=32176 12728 6022 3665 3406 6706 2306 2357 1988 2153 3232 19448 3186 3145 251 4400 299 698 479 225 209 1763 1710 225 2894 1485 1455 83 168 259
is_linear=0
shrinkage=0.03


Tree=19
num_leaves=31
num_cat=0
split_feature=4 22 74 45 4 38 21 13 18 8 37 39 9 43 10 38 31 6 36 39 36 4 20 29 3 49 31 15 58 38
split_gain=2262.63 5519.04 1874.02 1386.37 1183.31 679.889 512.674 347.394 270.377 257.746 248.096 316.046 301.518 205.718 175.311 212.148 141.937 329.747 136.546 134.553 125.742 117.277 114.054 73.7886 68.6767 64.6016 79.6194 60.4363 194.497 164.89
threshold=0.72785652500000009 149.66558736904764 1.0000000180025095e-35 -0.58011654786352229 1.0070265726190479 57.99612150040911 62.103275275000009 0.11059418028910635 -18.177114836964282 -0.69252635119047612 0.096175858694448266 30.205644527049028 0.082542099999999965 -0.31086482966524615 0.34364081052631573 81.308368943802307 56.231577492634798 -0.14678258590852125 0.97832775683304474 44.432298253878699 1.0879406063825448 1.1219900236842106 -39.678957549999993 33.880617337500006 1.5165708750000002 1.0000000180025095e-35 70.624581011563777 1.0371460000000001 1.0000000180025095e-35 41.525919590673176
decision_type=2 2 2 2 2 2 2 2 2 2 2 2 2 2 2 2 2 2 2 2 2 2 2 2 2 2 2 2 2 2
left_child=27 2 3 7 10 -6 9 13 -7 25 18 12 -12 -2 15 21 -10 24 -4 -19 -21 -5 -8 -11 -18 26 -3 -1 -29 -30
right_child=1 6 4 14 5 8 22 -9 16 23 11 -13 -14 -15 -16 -17 17 19 -20 20 -22 -23 -24 -25 -26 -27 -28 28 29 -31
leaf_value=-0.029924763931861647 0.031117077333371289 0.22007897390699929 0.20728267670964923 0.056667501984255193 -0.02939539784310757 -0.028294517590141545 -0.028038702878106243 -0.029097806613234616 0.25693069994769169 -0.029299919750726822 -0.02884515831920724 -0.029393091757225032 0.22950195621220046 0.24751032150371324 -0.024415721693131841 -0.029146944710235687 -0.029063688922255273 0.24271550422533039 -0.029742992002968576 -0.028469217675558645 0.27646703190858707 0.29995047959168925 0.15472270465751189 0.23652313456358193 0.22605458674664211 0.2868314439147836 -0.027059607424640964 -0.017930609747560205 0.28007030140808553 -0.027869610351396207
leaf_weight=1056.073766104877 4.5667221751064053 3.3217869922518748 2.3044205233454731 3.1897475402802211 9.5684143267571908 3.5189701728522769 608.40549956262112 5.7053877357393494 104.18327295221388 7.5885201133787614 5.1451148353517082 9.6676860786974412 18.579115113243461 32.766350464895368 103.58443507365882 7.230317423120141 6.343560565263032 41.718440804630518 24.04275169596076 3.4229073598980895 1.762792970985174 4.2242175303399563 2.9860609024763098 0.97038725018501271 1.0129049420356748 6.2035064809024334 1.7241638489067552 262.40788182429969 3.5876858048140994 2.6613392569124699
leaf_count=18766 75 18 14 52 39 78 4600 107 226 172 111 213 88 87 1419 161 143 164 602 89 5 6 36 3 3 11 40 4757 20 71
internal_value=-0.00080359 0.0326903 0.121005 0.0424457 0.17573 0.215771 -0.0222376 0.188024 0.230282 0.127567 0.0605426 0.114729 0.173462 0.221274 -0.0106374 0.0861226 0.236058 0.195528 -0.00819305 0.224761 0.0778906 0.197828 -0.027116 0.00287546 0.00822154 0.22131 0.136166 -0.0266901 -0.0139571 0.150079
internal_weight=2348.47 1023.74 392.538 161.267 231.27 171.531 631.2 43.0385 161.963 19.8084 59.7391 33.3919 23.7242 37.3331 118.229 14.6443 158.444 54.2606 26.3472 46.9041 5.1857 7.41397 611.392 8.55891 7.35647 11.2495 5.04595 1324.73 268.657 6.24903
internal_count=32176 8562 3682 1907 1775 747 4880 269 708 244 1028 412 199 162 1638 219 630 404 616 258 94 58 4636 175 146 69 58 23614 4848 91
is_linear=0
shrinkage=0.03


Tree=20
num_leaves=31
num_cat=0
split_feature=9 15 8 46 47 2 16 2 47 2 46 14 14 47 3 14 37 3 33 73 15 9 27 2 3 47 14 40 11 3
split_gain=3419.51 1161.09 870.532 481.239 323.732 352.073 304.051 245.091 238.154 215.117 454.427 200.065 262.095 196.613 180.298 249.813 168.913 163.618 244.092 143.042 120.758 102.701 200.093 167.758 158.145 107.27 102.669 146.232 105.87 184.373
threshold=-0.054317024999999998 0.84073658571428578 -0.19429934999999998 -1.4085812986859414 1.068097650765971 -0.21245118552631573 0.11169686929824564 0.21629642500000004 -0.84688718971357824 0.26179200000000008 -0.46684408756448331 0.66574133289473691 0.47347863157894737 1.0000000180025095e-35 -0.26092529999999986 0.86067734342105273 0.0028742054357924194 0.21022949999999999 1.1819750333333336 1.0000000180025095e-35 1.0091797250000003 -0.59024659999999984 0.12207034999999995 -0.059960924999999991 0.079919475000000004 -1.0539125778735294 0.97308230526315798 -0.45606874179908202 -0.511173219642857 0.18647470000000002
decision_type=2 2 2 2 2 2 2 2 2 2 2 2 2 2 2 2 2 2 2 2 2 2 2 2 2 2 2 2 2 2
left_child=1 3 8 -1 5 -5 11 16 14 26 -11 12 -7 -12 15 -3 -4 -6 -19 21 -18 23 -23 25 -25 -13 28 -28 29 -10
right_child=-2 2 7 4 17 6 -8 -9 9 10 13 19 -14 -15 -16 -17 20 18 -20 -21 -22 22 -24 24 -26 -27 27 -29 -30 -31
leaf_value=0.26576974432995842 -0.027623069849303201 0.045417905377856047 0.07371941869297087 0.018763520468962451 -0.0082488337692692495 0.087165707944007104 0.010861841281715962 -0.022360700183000352 0.0093319828685821792 0.24022318710372537 0.1762609112846181 0.18655203853174107 0.23063413181543907 -0.027301424841556073 0.039741980882786923 0.33478405521733234 0.20700481911741508 0.276698613888478 0.035935485491188093 -0.015366279830075134 0.028939007536749179 0.23153808961105293 0.048002828704278654 0.24657249045079624 0.11901350435649051 0.043132891953447383 0.28005187110474755 0.014298422122051626 -0.014188294824382289 0.18208964810629125
leaf_weight=14.388155207037924 1508.7570931278169 6.1887156069278699 17.426492670550942 35.157921448349953 40.246697548776865 17.202715303748846 19.452415477484465 8.3801905121654254 36.470437794923782 10.072210298851131 5.0597215183079269 6.4662892818450954 35.829848945140839 24.640073539689183 54.912098366767168 4.7330169305205345 32.619491804391146 4.9637566749006536 15.377403136342762 7.2862676717340937 3.9128769673407069 6.4671711344271889 29.666847398504615 19.054862577468157 16.985317910090089 17.089550241827965 2.5773076787590981 6.2570799570530635 332.30445279739797 6.4726663827896109
leaf_count=290 17563 146 307 624 524 256 167 135 594 211 79 128 758 429 1214 119 635 108 286 90 40 154 503 398 339 251 63 107 5511 147
internal_value=-0.0006371 0.0479627 0.0225414 0.097057 0.088002 0.105578 0.122932 0.128039 0.00908161 0.000823525 0.0671554 0.136867 0.184404 0.00775233 0.0621218 0.172989 0.151451 0.0267683 0.0959007 0.112211 0.188146 0.121958 0.0814826 0.146272 0.187034 0.0832517 -0.00605307 0.0944308 -0.00845127 0.0358034
internal_weight=2346.42 837.662 552.027 285.635 271.247 210.659 175.501 62.3391 489.688 423.854 39.772 156.049 53.0326 29.6998 65.8338 10.9217 53.9589 60.5879 20.3412 103.016 36.5324 95.73 36.134 59.596 36.0402 23.5558 384.082 8.83439 375.248 42.9431
internal_count=32176 14613 9737 4876 4586 3668 3044 1117 8620 7141 719 2877 1014 508 1479 265 982 918 394 1863 675 1773 657 1116 737 379 6422 170 6252 741
is_linear=0
shrinkage=0.03


Tree=21
num_leaves=31
num_cat=0
split_feature=34 16 7 47 47 19 7 19 5 34 71 38 74 5 28 7 3 25 6 38 15 12 1 47 23 26 38 15 34 7
split_gain=5949.29 4452.63 927.903 993.828 512.239 540.731 469.054 402.798 270.199 145.994 141.183 185.558 141.048 565.055 162.844 191.096 150.813 99.3217 84.6901 82.8895 73.8168 119.751 67.2947 62.5208 52.5527 36.5285 34.8155 41.0533 34.3894 38.7504
threshold=318.4104024071429 4.4444893460526327 0.21114688201452389 1.068097650765971 -0.84688718971357824 59.117541873330417 0.19324654519423204 40.18890911303582 -0.13590876130952376 178.68203695657897 1.0000000180025095e-35 161.55694922435376 1.0000000180025095e-35 0.13057944880952382 474.69539996121563 0.32636420337156336 0.43583992500000007 36.765069856637105 0.20103126475948394 89.921864112841732 1.0233880710526317 0.87517030832393494 0.22317720199217361 -1.0539125778735294 -12.466685811309523 -300.86050715789469 104.81997634634125 1.5038459214285715 294.12840550000004 0.16166895109628462
decision_type=2 2 2 2 2 2 2 2 2 2 2 2 2 2 2 2 2 2 2 2 2 2 2 2 2 2 2 2 2 2
left_child=2 6 28 4 5 20 18 -5 9 -6 26 -12 25 16 15 -15 -14 -7 24 -9 -4 -22 -17 -23 -2 -10 27 -8 -1 -30
right_child=1 -3 3 7 8 17 10 19 12 -11 11 -13 13 14 -16 22 -18 -19 -20 -21 21 23 -24 -25 -26 -27 -28 -29 29 -31
leaf_value=-0.028013431516655245 -0.01070906404331925 -0.024518750959321253 -0.026927929793100117 0.0056990338461653679 -0.018107955176029429 0.0016457210508140944 0.22005948457441118 0.051035753436807628 0.034260044829727679 0.23667521734243083 -0.025303007465778554 0.26338275120905558 0.025856054612207875 0.0073927575336108662 -0.022143943582632039 0.0089679946648627551 0.2426974754295354 0.27753188927419364 -0.026184790873523538 0.26188449974069994 0.23348524912612675 0.0090721763772930106 0.28121014705767355 0.17914025669097569 0.17588569445221397 -0.020589371008508769 0.26723394552351321 0.0086308569759100742 -0.0027513902370519504 0.13319417002362524
leaf_weight=1625.3168353103101 1.7496062312275169 92.017009105533361 11.755359103903176 8.6846500933170301 2.9047648124396783 1.3124261051416386 4.5432197675108901 1.9172573424875761 11.278733085840939 6.3244786225259304 3.6806444581598035 4.2126913815736771 3.9045415669679633 10.277520259842275 82.075001131743193 1.0450115222483862 11.640679640695451 13.314760625362394 5.3534720558673143 21.576739262789488 3.1812126860022572 13.653517462313175 4.2100694421678782 2.180663222447035 5.4035728611052019 260.331856591627 124.64800275862217 1.0520554222166536 10.551457731053231 2.1868049278855315
leaf_count=26339 37 54 51 129 47 5 97 28 53 141 24 85 91 176 62 19 246 281 170 442 73 130 95 50 128 346 2518 8 193 58
internal_value=-0.000767332 0.139873 -0.0169518 0.0201232 0.00831118 0.103621 0.240258 0.180795 -0.00268685 0.15683 0.25619 0.129761 -0.0065607 0.0215564 -0.00523661 0.0834808 0.188938 0.253161 0.0634105 0.245094 0.0318492 0.068293 0.228811 0.0336593 0.130314 -0.0182889 0.263724 0.181682 -0.0276276 0.0212087
internal_weight=2352.28 242.66 2109.62 471.569 439.391 45.3979 150.643 32.1786 393.993 9.22924 138.137 7.89334 384.763 113.153 97.6076 15.5326 15.5452 14.6272 12.5067 23.494 30.7708 19.0154 5.25508 15.8342 7.15318 271.611 130.243 5.59528 1638.06 12.7383
internal_count=32176 3121 29055 2465 1866 590 3067 599 1276 188 2732 109 1088 689 352 290 337 286 335 470 304 253 114 180 165 399 2623 105 26590 251
is_linear=0
shrinkage=0.03


Tree=22
num_leaves=6
num_cat=0
split_feature=12 35 6 35 41
split_gain=19987.4 48.5587 69.5985 338.169 0.96252
threshold=1.0000000180025095e-35 22.24772423333334 -0.40726462593749996 20.797891380921055 -0.17279336205388374
decision_type=2 2 2 2 2
left_child=1 2 -1 -4 -3
right_child=-2 4 3 -5 -6
leaf_value=0.26633399562972931 -0.029919266579763928 0.27909426514104835 -0.029023842263878736 0.26549504657444489 0.26449921945681953
leaf_weight=25.230464935302734 2117.5011878553778 97.091012585908175 4.7983072344213733 12.601434707641602 89.106546983122826
leaf_count=2 32048 15 85 1 25
internal_value=-0.00112988 0.265162 0.233473 0.184403 0.272272
internal_weight=2346.33 228.828 42.6302 17.3997 186.198
internal_count=32176 128 88 86 40
is_linear=0
shrinkage=0.03


Tree=23
num_leaves=31
num_cat=0
split_feature=9 3 76 69 63 71 58 0 9 14 42 6 3 8 46 14 37 16 44 20 14 42 5 9 76 46 13 5 8 46
split_gain=10544.6 958.061 515.052 422.253 344.497 298.718 230.318 512.089 136.856 141.699 131.857 177.196 131.149 310.973 212.724 200.375 166.403 151.297 141.162 140.253 140.214 105.411 93.6734 78.682 166.981 76.7813 65.9792 123.323 58.9445 55.6566
threshold=-0.47489022499999994 0.20232262499999998 1.0000000180025095e-35 1.0000000180025095e-35 1.0000000180025095e-35 1.0000000180025095e-35 1.0000000180025095e-35 0.32941862940476196 -0.60795894999999989 0.65775150000000016 0.93883457576804219 -0.51889815324561395 -0.095369460714285689 -0.60067330131578933 0.40245179962455496 0.7286955263157896 0.0074948059327053637 0.048789702380952378 0.04419853654582364 -2.6672365749999996 0.86067734342105273 0.17930216850821695 -0.059417726315789447 -0.46023417023809521 1.0000000180025095e-35 1.3441890107460133 0.027933363341564526 -0.15771282142857138 -0.76372012261904743 -1.2636986508211014
decision_type=2 2 2 2 2 2 2 2 2 2 2 2 2 2 2 2 2 2 2 2 2 2 2 2 2 2 2 2 2 2
left_child=1 3 25 4 5 12 10 -8 9 -6 23 -12 13 14 26 16 19 -18 -19 -14 29 22 -21 24 -2 -3 27 -1 -23 -17
right_child=6 2 -4 -5 8 -7 7 -9 -10 -11 11 -13 15 -15 -16 20 17 18 -20 21 -22 28 -24 -25 -26 -27 -28 -29 -30 -31
leaf_value=0.22210481238154178 0.22393491309425342 0.18638587013818594 -0.014859356755895402 -0.029288392775511225 -0.028174519860804204 -0.023357027860381786 -0.017361732304310155 0.23437505768715217 -0.02937625030802514 0.2460499732905749 0.19642581569291392 -0.014002948203210729 0.2447284215299306 -0.011085603062057326 0.24702466355571598 0.17502697359697736 0.024387317641927187 0.07387807282689586 0.24901592035643252 0.26196298769752202 0.0076242664289930774 0.12570967092563937 0.0011375412857084568 -0.029215378817411441 -0.029114578593069498 -0.026464285474994229 -0.02847465900690584 0.0013659746998723821 0.22667645624198579 0.2445818078775813
leaf_weight=5.3179015256464472 3.3587723784148675 18.681570503860716 41.316179057583213 8.6316692568361741 2.6288003139197853 5.6420388910919419 28.821623077616096 9.6140335351228696 9.0006886534392816 4.4957877546548843 5.3616645541042081 10.472177870571612 31.267618402838707 8.7952722106128913 21.025595396757126 13.225118339061735 11.203671481460335 8.0233004018664378 8.878390606492756 1.4601722024381159 2.4858868271112433 9.7101636789739167 6.1436120420694378 1941.3599346913397 7.1948517952114344 1.6083658449351776 3.1343672908842555 3.9799102284014216 13.198212787508961 103.48100192844868
leaf_count=69 47 266 866 268 66 107 525 103 146 55 66 247 374 221 242 213 255 105 111 16 73 177 156 25732 181 46 13 87 164 1179
internal_value=-0.000350681 0.153252 0.0459272 0.176685 0.183214 0.191659 -0.0266458 0.0459729 0.0481081 0.145463 -0.028068 0.0578498 0.196505 0.147256 0.188879 0.206368 0.171946 0.110531 0.166977 0.199613 0.232136 0.152633 0.0543642 -0.0287694 0.0524848 0.169319 0.089116 0.128957 0.184742 0.236882
internal_weight=2349.52 343.335 61.6061 281.729 273.098 256.972 2006.18 38.4357 16.1253 7.12459 1967.75 15.8338 251.33 42.253 33.4578 209.077 89.8851 28.1054 16.9017 61.7798 119.192 30.5122 7.60378 1951.91 10.5536 20.2899 12.4322 9.29781 22.9084 116.706
internal_count=32176 5275 1178 4097 3829 3562 26901 628 267 121 26273 313 3455 632 411 2823 1358 471 216 887 1465 513 172 25960 228 312 169 156 341 1392
is_linear=0
shrinkage=0.03


Tree=24
num_leaves=31
num_cat=0
split_feature=6 37 38 6 37 34 9 8 47 30 11 46 38 46 33 71 6 38 0 40 13 37 2 39 37 38 13 46 38 15
split_gain=10565.6 2528.3 3462.44 240.009 385.324 1310.81 181.101 109.987 93.1566 58.257 58.0602 36.4363 34.943 46.0667 29.8279 18.6779 141.955 70.2385 23.3498 36.4726 15.4098 12.9031 11.7648 11.5229 10.1916 45.06 20.0642 7.55513 5.62622 4.69215
threshold=0.17718372555451131 0.12858223022351298 20.642257513181338 0.052304247321428562 0.072846094363715377 70.40945695883461 0.22869456666666668 -0.30476087969924803 0.9645849566859952 -4.3832099981296988 0.12496022142857141 0.40245179962455496 10.961579883400519 0.18512782782729531 9.5303496071428579 1.0000000180025095e-35 -0.068260368756265635 137.3946316058011 -0.079025090324248107 0.040279896302021896 0.18568109036841129 0.093640898344913556 -0.39703367499999992 16.832039588292325 0.10167749255661127 75.109193786027831 0.10682025516949911 1.0000000180025095e-35 110.29661635747341 1.1860962250000002
decision_type=2 2 2 2 2 2 2 2 2 2 2 2 2 2 2 2 2 2 2 2 2 2 2 2 2 2 2 2 2 2
left_child=3 2 12 15 5 9 11 -4 23 -5 -10 27 -2 -14 -9 -1 18 -18 19 -17 -3 -16 -23 -8 25 -6 -27 -7 29 -22
right_child=1 20 7 4 24 6 8 14 10 -11 -12 -13 13 -15 21 16 17 -19 -20 -21 28 22 -24 -25 -26 26 -28 -29 -30 -31
leaf_value=-0.029595455838627976 -0.028278962476745165 0.073353232353400535 0.06996842576254142 0.28402768172892662 -0.026384020380705107 -0.023422926287595885 0.14000172245953785 0.14373323224667023 0 -0.027228720612327627 0.22776771658400397 0.17882399923255624 -0.010841291498775425 0.15533380506605926 0.26668671955061063 -0.021132576188162711 0.29187646982866988 -0.023884989193164129 -0.028697895380609004 0.18339598837257734 0.053144540130719009 0.10735156208631512 0.24183611586197348 0.27161998848821445 -0.029348132730560906 0.234135579042692 0.025243579440470343 0.057372145976972315 -0.02952557531324659 -0.025298831401729775
leaf_weight=1738.4104367867112 43.211805313825607 1.2998435795307148 2.7903028018772593 0.44451212882995506 8.8201014623045904 2.6761365793645409 1.0579231195151866 2.3176419958472243 2.2184584960341449 69.641031045466661 1.7332585901021955 1.4103721790015695 4.3160829432308665 2.1693722754716873 189.93429127335548 2.0582145862281318 1.8999236263334744 0.88278766721487034 46.202822789549828 1.1309439502656458 1.3202969487756484 1.4269062504172327 1.7360090911388386 20.783583369106054 149.08413127623498 0.84505326859652885 0.84826798737049103 1.5536189712584016 48.255459075793624 1.1864345408976076
leaf_count=24145 108 37 37 13 101 32 17 34 48 194 42 35 26 34 4308 22 49 25 386 28 22 35 44 490 1116 22 22 35 648 21
internal_value=-0.000827463 0.165444 0.205345 -0.0251452 0.0017128 0.047391 0.208038 0.261462 0.241654 -0.02481 0.102841 0.0522527 -0.0184785 0.0458031 0.264144 -0.0290634 -0.0112558 0.19331 -0.0232089 0.0538562 -0.0245217 0.265498 0.187234 0.266049 -0.0273355 0.000929025 0.138407 0.00620045 -0.0272263 0.0153202
internal_weight=2351.67 299.964 247.902 2051.7 261.116 101.519 31.4334 198.205 25.7932 70.0855 3.95172 5.64013 49.6973 6.48546 195.415 1790.59 52.1747 2.78271 49.392 3.18916 52.062 193.097 3.16292 21.8415 159.598 10.5134 1.69332 4.22976 50.7622 2.50673
internal_count=32176 5354 4626 26822 2167 906 699 4458 597 207 90 102 168 60 4421 24655 510 74 436 50 728 4387 79 507 1261 145 44 67 691 43
is_linear=0
shrinkage=0.03


Tree=25
num_leaves=31
num_cat=0
split_feature=16 6 6 13 6 36 11 11 18 46 73 36 5 33 11 22 31 72 15 5 46 11 17 3 11 38 3 3 24 15
split_gain=3931.79 2952.52 676.532 652.127 426.713 677.565 374.442 704.575 359.951 324.935 284.885 276.405 194.32 183.954 183.666 175.959 178.792 146.457 146.182 141.747 148.38 162.317 132.44 140.04 211.107 126.188 118.435 116.565 120.428 102.477
threshold=0.021484359210526164 -0.29595039755325808 -0.011437310466791974 0.033591208538805421 -0.44025655896929822 1.0073374507567754 -0.44552518355263149 -0.06798488026315784 0.1021032970551379 -1.046374679023842 1.0000000180025095e-35 1.0134948670847808 -0.32383427499999995 0.62226794285714293 -0.30272828749999992 5.1595455828947374 0.15329599756164572 1.0000000180025095e-35 0.99278267619047633 0.35220931328320809 -0.2495201157672238 -0.39948824364035079 0.96460864166666682 -0.11771816842105254 -0.36004515065789472 6.7138170040792771 -0.073171270238095179 0.37838319047619051 -2.1260835025000007 0.9385481142857145
decision_type=2 2 2 2 2 2 2 2 2 2 2 2 2 2 2 2 2 2 2 2 2 2 2 2 2 2 2 2 2 2
left_child=1 4 8 6 17 25 -2 9 15 14 11 18 -9 -10 -8 16 -3 -1 22 20 21 -7 23 24 -11 -6 -19 28 -13 -15
right_child=3 2 -4 -5 5 19 7 12 13 10 -12 27 -14 29 -16 -17 -18 26 -20 -21 -22 -23 -24 -25 -26 -27 -28 -29 -30 -31
leaf_value=-0.02882996845719445 -0.023299116579221513 -0.0013286724960091391 -0.029474495614676764 -0.028825249489221945 -0.016992583880120246 0.33997742419623339 -0.028111426783794611 0.23343994859996267 -0.0024278146654633757 0.21792332883103696 0.25001713502689654 -0.01514854107271682 -0.02266486225129136 0.04829579364039692 0.22713461218278966 0.14673325532482745 0.25638783943142324 0.26025059236987086 -0.010576912514303484 -0.027953230830134766 0.22093133133406517 -0.028770520293118197 0.12397962588027396 0.01211182432714176 0.026862813139879281 0.30650218817358166 -0.027366484121229429 -0.027981744307122729 0.20637347923944138 0.17010589798079778
leaf_weight=127.64890917390585 200.47264861129224 2.4759352337568989 13.340679379180072 1397.2172954417765 44.934140771627426 1.2785974387079475 2.9826742988079813 2.6105035990476599 7.4479759819805613 8.3931172862648982 6.3177339509129515 2.5236165113747164 159.4633632786572 7.2514616064727297 15.45686245895922 19.847700228914618 77.42055693641305 2.8185278996825218 49.089017203077674 2.9598581604659548 24.218688253313303 4.7624209169298437 18.878859391435981 60.33823355846107 13.64003152027726 1.0115697681903828 2.2451022267341605 2.8789292015135279 15.692016486078501 51.900969199836254
leaf_count=2964 3318 77 41 17411 1474 17 97 47 214 140 61 11 846 169 194 346 807 25 432 52 325 150 325 1340 163 15 56 42 209 808
internal_value=-0.000497491 0.0862629 0.175683 -0.0178711 0.0103683 0.0654571 0.00951639 0.0278886 0.192162 0.0661162 0.0535907 0.0461929 -0.0183799 0.137666 0.185757 0.228345 0.248372 -0.0224951 0.0318446 0.16846 0.1878 0.0530527 0.0524316 0.0358665 0.100435 -0.00915499 0.134086 0.147677 0.175605 0.155331
internal_weight=2347.52 391.563 179.685 1955.95 211.878 79.1653 558.738 358.265 166.345 196.191 177.752 171.434 162.074 66.6004 18.4395 99.7442 79.8965 132.713 150.339 33.2196 30.2597 6.04102 101.25 82.3714 22.0331 45.9457 5.06363 21.0946 18.2156 59.1524
internal_count=32176 7540 2462 24636 5078 2033 7225 3907 2421 3014 2723 2662 893 1191 291 1230 884 3045 2400 544 492 167 1968 1643 303 1489 81 262 220 977
is_linear=0
shrinkage=0.03


Tree=26
num_leaves=31
num_cat=0
split_feature=18 22 37 46 47 33 36 18 36 7 38 15 47 42 4 18 12 63 6 13 8 6 37 47 45 34 39 36 47 0
split_gain=2330.06 3238.44 2060.41 1253.53 789.427 685.896 469.953 327.189 310.433 289.934 285.01 235.562 327.316 405.756 232.194 417.027 191.59 173.627 175.727 167.962 157.191 145.588 129.947 135.985 128.474 122.567 121.44 111.919 100.045 113.852
threshold=-2.1807769026785708 177.09228147738096 0.075936074347776314 0.90954106715149396 0.46427360196611295 62.442020375000006 1.0223394070699998 -11.500757107437343 0.99299167602021454 0.19324654519423204 56.29733266211921 1.1087035750000001 1.4476441957258817 -0.18502730105587625 0.86137284166666661 -9.7248358696052613 0.9049818545081455 1.0000000180025095e-35 -0.081359982490601501 0.15794815481052751 -0.30048057105263148 -0.1496317879033521 0.234258760307921 1.068097650765971 -0.56463426563847685 180.45253584880956 45.773139726079187 0.99693173954473779 0.91282860964600732 0.099281300473057651
decision_type=2 2 2 2 2 2 2 2 2 2 2 2 2 2 2 2 2 2 2 2 2 2 2 2 2 2 2 2 2 2
left_child=1 2 7 5 19 8 10 16 -4 -3 -7 -2 17 -14 -12 24 -1 27 -19 -5 25 26 -6 -24 -16 -17 -8 28 29 -13
right_child=11 9 3 4 22 6 21 -9 -10 -11 14 12 13 -15 15 20 -18 18 -20 -21 -22 -23 23 -25 -26 -27 -28 -29 -30 -31
leaf_value=0.014839629882750284 -0.028417008439719709 0.14663532856389272 0.23428385569638355 0.040390796489585899 -0.016488330048387782 -0.019974804360783967 0.25737073547893324 -0.024203945493093654 -0.0010284306565141589 -0.026028351391955248 0.25722587656240326 0.039119546927513765 0.24813718808491211 -0.011804627864755253 0.070510953131229751 0.047339914844938408 0.25171430888710117 0.22876741030461548 -0.011126903745456142 0.25975730694184912 0.020639325443446696 0.04490647327106017 0.23720562288627933 0.00074158887808826513 0.25738117240447927 0.23409028805569007 0.048697577902415606 -0.019949197730559393 -0.013447146162248694 0.25887121219717452
leaf_weight=5.9616773817688209 1267.6915777735412 8.8467816077172738 6.1702231038361814 4.0533907059580114 64.830339826643467 4.4132598843425503 6.7531889081001264 112.52706565335393 25.70458322763443 397.39209454320371 84.816431136801839 5.2726802062243241 10.484587749466302 10.982647815719245 3.7662615701556197 5.2085667289793518 6.3354970645159483 5.4131425563246012 5.4167370125651342 15.110182654112576 14.132060661911963 21.480280948802829 3.8436780832707864 4.9776714518666267 39.044687200337648 8.3960365876555425 4.1105427742004395 187.90485635399818 8.5506766475737077 3.5466585345566273
leaf_count=125 20872 142 94 82 140 97 112 1938 167 3048 1328 113 180 270 25 30 107 115 95 248 74 159 55 24 615 140 46 1579 93 63
internal_value=-0.000873884 0.0388981 0.095122 0.135785 0.0429784 0.174191 0.195572 -0.00808618 0.045019 -0.0222257 0.216705 -0.0232795 0.00412234 0.115574 0.223456 0.182506 0.138165 -0.00698337 0.109502 0.213964 0.0912425 0.0907393 -0.00169982 0.105615 0.241214 0.163678 0.179852 -0.0131938 0.0594084 0.12974
internal_weight=2353.14 847.875 441.636 316.811 92.8153 223.996 192.121 124.824 31.8748 406.239 159.777 1505.26 237.572 21.4672 155.364 70.5476 12.2972 216.105 10.8299 19.1636 27.7367 32.344 73.6517 8.82135 42.8109 13.6046 10.8637 205.275 17.37 8.81934
internal_count=32176 8796 5606 3436 549 2887 2626 2170 261 3190 2309 23380 2508 450 2212 884 232 2058 210 330 244 317 219 79 640 170 158 1848 269 176
is_linear=0
shrinkage=0.03


Tree=27
num_leaves=31
num_cat=0
split_feature=12 38 38 9 8 12 45 15 38 11 47 0 37 38 27 6 58 43 0 19 16 42 11 20 38 42 47 28 45 21
split_gain=2208.78 4117.55 5612.93 1161.11 596.941 332.002 797.402 438.539 996.804 245.949 239 209.292 258.995 311.405 172.509 142.047 93.5044 66.539 65.695 64.4277 75.0804 59.5977 69.5025 82.2616 43.292 121.958 40.2347 37.6628 28.5468 25.1448
threshold=0.93449941214599008 28.56953971540743 62.522219945657049 0.30902823809523816 -0.73078296710526303 0.88255701000000009 -0.51175889520963957 0.98230275952380963 65.890203326307287 0.094061274999999986 -1.2781900817134766 0.32180977156015045 0.048216784668843209 68.678203979309245 51.526123106578957 0.12266402296992486 1.0000000180025095e-35 -0.31086482966524615 -0.35780179565476183 22.059712187949014 0.40596239999999995 -0.094226687895176672 0.078728310526315765 -23.173524474999997 72.425515456031647 0.267466822348921 -0.74337449563360269 183.95619367261909 0.39647072014262419 55.356855650000007
decision_type=2 2 2 2 2 2 2 2 2 2 2 2 2 2 2 2 2 2 2 2 2 2 2 2 2 2 2 2 2 2
left_child=5 -2 3 4 -3 -1 7 -7 15 10 14 18 -13 -14 -6 27 19 -16 -8 -12 29 -5 23 -23 25 -4 -27 -9 -11 -21
right_child=1 2 24 21 9 6 11 8 -10 28 16 12 13 -15 17 -17 -18 -19 -20 20 -22 22 -24 -25 -26 26 -28 -29 -30 -31
leaf_value=-0.028516181338452018 -0.029167066561049417 -0.029134071037804521 -0.011504001893002566 -0.019529207306645497 0.24795994125433243 -0.026618644961097487 0.13715492993605224 0.27685776409822377 -0.013543187665831739 -0.017249849108062366 0.27204375157810179 -0.02952489940274643 0.25920177274277506 -0.025398202252257494 -0.012962623086234004 -0.0056575982840585525 0.11502138449015943 0.18631397767832486 -0.025384956581901374 0.26079590534972164 0.010312029500089755 0.28000293027127099 -0.02259215568889314 0.026574274451327311 -0.028014971699643718 0.058801842260017036 0.26479362070553586 0.09731694812841904 0.16211838315757457 0.106356390394114
leaf_weight=1202.8086109086871 370.34063535556197 7.2278047092258921 23.826213400810961 15.668491167947652 6.3780274465680105 19.629549704492092 2.1516167912632218 26.669119138270624 21.964338734745979 3.4009841736406079 151.72016006335616 14.399874752387406 8.8647837396711093 5.5789847988635293 5.8774256929755211 1.7761084008961905 3.99422788247466 1.9130209088325498 297.28609184734523 5.0719274207949621 1.8597549535334108 2.2669981382787228 3.3394439984112978 2.3484015055000773 135.19124466180801 1.6823849901556971 1.9173905290663231 1.2941873464733351 0.93007170967757691 1.4972086921334264
leaf_count=14778 4698 3 235 275 101 480 29 425 282 77 2396 260 144 124 37 26 33 26 5735 81 10 45 55 13 1679 35 37 14 19 24
internal_value=-0.00078903 0.0418305 0.111736 0.212846 0.237513 -0.0206456 0.00303801 0.0938821 0.139652 0.248092 0.253517 -0.0167152 0.0603015 0.149648 0.133431 0.252562 0.263777 0.0373326 -0.0241616 0.267394 0.181137 0.0142973 0.0807125 0.154988 -0.0210391 0.0132149 0.173524 0.269032 0.0233809 0.228169
internal_weight=2348.88 746.452 376.111 213.494 189.871 1602.42 399.615 71.3333 51.7038 182.643 178.312 328.281 28.8436 14.4438 14.1685 29.7394 164.143 7.79045 299.438 160.149 8.42889 23.6233 7.95484 4.6154 162.617 27.426 3.59978 27.9633 4.33106 6.56914
internal_count=32176 9879 5181 3195 2807 22297 7519 1227 747 2804 2708 6292 528 268 164 465 2544 63 5764 2511 115 388 113 58 1986 307 72 439 96 105
is_linear=0
shrinkage=0.03


Tree=28
num_leaves=23
num_cat=0
split_feature=25 5 17 65 13 46 23 59 19 26 41 26 53 30 29 41 41 45 41 11 29 12
split_gain=2587.46 2238.49 1979.43 2551.61 1618.27 1007.95 1102.33 621.726 580.383 573.737 507.508 318.375 178.625 115.194 224.37 106.402 491.315 97.6445 255.454 43.2278 16.8134 9.21485
threshold=29.519747906772285 -0.33701079342105261 0.96098638750000009 1.0000000180025095e-35 0.4372201631426455 -1.046374679023842 3.6628725750000006 1.0000000180025095e-35 93.969070604962994 -30.918886124999997 -0.78653106597670897 -204.84483874736839 1.0000000180025095e-35 10.854954924771304 -29.260270958395985 -0.49887069181934512 -0.5067989361434323 -0.32834304285003757 0.57109353366709892 -0.10874368333333329 33.880617337500006 0.76010973699874695
decision_type=2 2 2 2 2 2 2 2 2 2 2 2 2 2 2 2 2 2 2 2 2 2
left_child=-1 13 3 7 -5 17 -7 9 -9 10 12 -8 -3 14 -2 16 -12 18 -4 -6 -21 -10
right_child=1 2 5 4 19 6 11 8 21 -11 15 -13 -14 -15 -16 -17 -18 -19 -20 20 -22 -23
leaf_value=-0.029845458485946965 0.1975760090654394 -0.028375415316451099 -0.028951042172085734 -0.029722058264760452 0.24235000393946507 -0.0297654511739287 0.39432956372933958 -0.029612670031878608 0.17031861141402019 0.17432264006381501 -0.029762905729785322 0.14378933965637336 0.2042152407775534 0.21389969197108327 -0.029109871812158333 -0.029839519517421965 0.16827954795467448 0.20244118976426836 0.20568881967432268 0.16191635564250087 0.20617039962620626 0.21627075490215653
leaf_weight=1123.2384283486754 12.071641065180303 3.9104067757725689 6.4113894850015649 35.867441430687904 30.529699252918363 57.471026796847582 6.487436294555665 18.490298345685005 13.724830720573664 13.460185546427963 58.252768859267235 15.839194752275944 11.724775247275829 56.748637707903981 5.7373749464750281 670.23617609031498 13.872398076578973 71.383414074778557 11.650812149047852 14.328592974692581 35.077995825558901 11.161255836486816
leaf_count=20515 13 81 94 911 25 936 1 348 60 44 805 63 3 35 129 8224 34 35 1 71 5 1
internal_value=0.0027049 0.0338387 0.0230431 0.00587215 0.137579 0.117386 0.0397493 -0.0128569 0.097515 -0.0190785 -0.0225393 0.218156 0.146042 0.192811 0.124624 -0.0261131 0.00846687 0.186494 0.122535 0.212628 0.19375 0.191831
internal_weight=2297.68 1174.44 1099.88 930.637 115.804 169.243 79.7977 814.833 43.3764 771.457 757.997 22.3266 15.6352 74.5577 17.809 742.361 72.1252 89.4456 18.0622 79.9363 49.4066 24.8861
internal_count=32434 11919 11742 10612 1012 1130 1000 9600 409 9191 9147 64 84 177 142 9063 839 130 95 101 76 61
is_linear=0
shrinkage=0.03


Tree=29
num_leaves=31
num_cat=0
split_feature=8 38 12 3 13 11 38 38 10 75 8 27 11 33 27 14 12 22 31 17 38 3 62 0 12 12 19 42 63 40
split_gain=6093.58 4354.35 422.456 454.127 260.621 256.629 1465.73 94.1158 167.958 90.0947 76.4739 62.6389 56.9709 47.9254 44.3363 42.702 27.571 37.0465 22.7263 20.9572 130.624 16.1916 15.6138 292.845 69.2047 28.3676 15.15 24.77 10.6359 67.0886
threshold=-0.049718449874686647 23.516967343932745 0.9937600158012222 -0.023557164285714197 0.0043549237933774706 0.094061274999999986 46.711716127746975 11.655461498668689 0.2283204250000001 1.0000000180025095e-35 -0.25445330952380946 1.7639161250000004 0.0099951005639097503 1.9202785592105267 257.9834140750001 0.9311401250000001 0.89732070027568944 14.559428891666668 37.81746233120537 0.99190973646616565 6.7138170040792771 0.26422084210526314 1.0000000180025095e-35 -0.13616274872180448 0.93773674727130329 0.91189437894110281 8.0892633822614197 -0.38240157491368493 1.0000000180025095e-35 0.63117953645485347
decision_type=2 2 2 2 2 2 2 2 2 2 2 2 2 2 2 2 2 2 2 2 2 2 2 2 2 2 2 2 2 2
left_child=2 4 5 -4 -2 19 9 16 -9 -7 -11 -5 -3 -14 -15 -12 17 -6 -8 22 -21 26 28 24 25 -24 -10 -28 -1 -30
right_child=1 12 3 11 7 6 18 8 21 10 15 -13 13 14 -16 -17 -18 -19 -20 20 -22 -23 23 -25 -26 -27 27 -29 29 -31
leaf_value=-0.028729801605751653 -0.028851986661846702 0.22564771606072442 0.20975965420228779 0.12740193449443632 0.19728205829544851 0.20898603178653521 0.070244503882332901 -0.028948566937448739 0.18868609932944769 0.19708201107810083 -0.028499423465802254 -0.029546068455337887 0.18370255613530023 -0.029801607539612376 0.16483286313470405 0.20003302904033618 0.2050974927406069 0.0454399043229258 -0.029804985686195301 0.14099805260400167 -0.029641479021224229 0.20856434707728597 -0.027180672517423166 -0.029806605523252882 0.23693924840316283 0.16766919285329296 -0.025389159587811957 0.17271663300599077 -0.027088333603052853 0.057616041308205114
leaf_weight=1479.6295788604766 4.630517777055501 0.70945572853088279 14.505643606185911 2.5217527728527811 3.5238387137651435 27.519370753318071 1.959729742258786 4.4821233972907093 1.7866822946816676 3.5311399772763234 3.920805910602212 17.792622335255146 0.86589213088154693 127.16429269872606 0.95970821008086105 0.79894013330340374 199.56903939321637 2.6326114051043987 165.12973973341286 4.7245996352285173 24.632719311863184 8.5450349096208793 1.7743124030530446 98.013728227466345 4.5453539714217186 0.94399431720376004 1.1857855524867766 0.91908752731978971 75.774754658341408 9.3521287105977517
leaf_count=21241 67 1 17 16 6 84 39 83 7 10 119 307 3 4264 6 3 275 35 1991 35 321 23 50 1680 7 5 36 6 1524 173
internal_value=-0.00023693 0.11364 -0.0212292 0.0821602 0.192765 -0.0231275 0.00875019 0.197399 0.127493 0.182768 0.0935062 -0.00938752 -0.0250303 -0.026606 -0.0281929 0.0129109 0.203069 0.134595 -0.0285723 -0.0269349 -0.00169246 0.183894 -0.0273767 -0.0161009 0.166326 0.0429693 0.125104 0.0636628 -0.0281323 -0.0176907
